gru/gru_cell/kernel:0
(1, 240)
[[ 0.1485454  -0.47139007 -0.36648256 -0.23702732 -0.33890277 -0.22836092
  -0.23857206 -0.20234047 -0.3228102  -0.357902   -0.40243787 -0.05810764
  -0.47255287 -0.5513268  -0.19249496 -0.27920848 -0.45988515 -0.35863477
  -0.3215312  -0.44166142 -0.22967285 -0.2833837  -0.2633723  -0.41949448
  -0.26185778 -0.5522086  -0.2226879  -0.09293261 -0.45334795 -0.31912842
  -0.2298539  -0.39654014 -0.4710527  -0.38120174 -0.4526747  -0.4124123
  -0.37066564 -0.30725214 -0.32279584 -0.4041523   0.11767015 -0.47526637
  -0.5571079  -0.03796773 -0.4065798  -0.39460894 -0.41373894 -0.23791698
  -0.2907802  -0.3910439  -0.4454418  -0.13330892 -0.45841658 -0.38525957
  -0.21553338 -0.17642249 -0.38401487 -0.15127626 -0.30899125 -0.35995287
  -0.42466384 -0.33451152 -0.13761172 -0.25808972 -0.33624002 -0.15244159
  -0.37444663 -0.30421272 -0.35282516 -0.4112549  -0.31375352 -0.04237861
  -0.3185211  -0.422448   -0.19024841 -0.35464877 -0.48761386 -0.46822718
  -0.5093764  -0.23855898  0.00693998  0.00538908  0.08977698 -0.02920943
  -0.04458566 -0.03947046  0.0855915   0.02887283  0.0783882   0.15279515
  -0.03557881  0.14033602  0.015054    0.03908573  0.04424788  0.14888588
  -0.17508112  0.10735241 -0.10444307 -0.10047096 -0.06932925  0.02952141
   0.03141819  0.1529583  -0.02071745 -0.04679089 -0.15607128 -0.03422455
  -0.02684708 -0.01481946  0.07429974  0.00733423  0.11215451 -0.11461698
  -0.03703614  0.07257295  0.15507792 -0.04372232  0.0515433  -0.05752155
   0.00973698  0.00079012  0.02285106 -0.13286883 -0.03251921  0.00267083
   0.09646957  0.10761662 -0.12497663  0.01738597  0.00574695  0.12273812
  -0.11839545 -0.14209153  0.01089626  0.13566402  0.02726166 -0.08600719
   0.05891842  0.09249803 -0.14778693 -0.14584991  0.02336878 -0.03113966
  -0.08659242 -0.00477435  0.1132653  -0.10715111 -0.02219432 -0.10552962
   0.06229142  0.09070653 -0.01879879  0.08580153 -0.10580245 -0.00695111
  -0.03113172  0.05409291 -0.01656412 -0.15545581 -0.11341526 -0.07782763
   0.10234606 -0.02698929 -0.14066353  0.12754577  0.0231646  -0.06107988
   0.05521397  0.13394776 -0.0822859  -0.05464309 -0.02552401  0.07699531
   0.07360759  0.0908922   0.14083508 -0.04410933  0.09919078  0.155722
   0.08088776  0.06295294  0.13978837 -0.13979942  0.13182773 -0.0926771
  -0.11856873 -0.05187016  0.14388262 -0.10226777 -0.07000522 -0.04027474
   0.06062822 -0.02136071  0.14541136 -0.04730008 -0.07829764  0.09909034
   0.06968351  0.07334239 -0.00172572  0.0939198   0.09203506  0.12549724
  -0.09626692  0.01511821  0.07483706  0.14200574 -0.02969105  0.08419883
  -0.09778295 -0.02489265 -0.06842898  0.11277507 -0.09072124 -0.01403668
   0.00984492 -0.09938015 -0.10973829  0.10929564  0.14047706 -0.13428502
  -0.13730009  0.02859376  0.06684016 -0.127983    0.05751481  0.13862318
  -0.1467446  -0.05052178 -0.03815814 -0.05350703  0.06094414 -0.14969678
  -0.11416744 -0.02657478 -0.07811577  0.09638067 -0.1270255   0.01804063]]
gru/gru_cell/recurrent_kernel:0
(80, 240)
[[-1.71165287e-01  9.60228294e-02  1.21918947e-01  6.66790828e-02
   1.25831038e-01  1.36552781e-01 -3.37190442e-02  5.48260286e-02
   1.58904016e-01 -1.49531543e-01  9.53584015e-02 -2.13339310e-02
   9.23341978e-03  2.15150774e-01  1.77725106e-01  9.26849023e-02
   1.72491744e-01  1.48786068e-01  1.82031929e-01  1.36207417e-01
   1.60853475e-01  7.18321204e-02  1.54885471e-01  9.97436047e-02
   5.91284819e-02  1.06185220e-01  6.09503053e-02  1.56243462e-02
   2.10095435e-01  1.51370123e-01  1.51702121e-01  1.10954186e-02
   3.26743908e-02 -1.14225894e-01  1.10007107e-01  1.05112314e-01
   7.45404959e-02  5.65621182e-02  9.04180408e-02  1.16927341e-01
   6.33043349e-02  4.97439690e-02  1.58120885e-01  2.54694391e-02
   2.05714330e-01 -4.36760560e-02  3.45227718e-02  1.17320865e-01
   1.06594220e-01  1.57377169e-01  1.32948071e-01  6.50481507e-02
   3.36805801e-03  1.91744491e-01 -1.11741328e-03  6.02668561e-02
   1.99260622e-01  1.21539302e-01  2.35135913e-01  7.15359375e-02
   2.68412322e-01  1.59355253e-01  1.04783840e-01  3.82575430e-02
   8.24571550e-02  1.21705137e-01  8.06772038e-02  1.81902066e-01
   1.10505313e-01  1.60815090e-01  8.03689510e-02  7.06597567e-02
   1.71369597e-01  1.58724755e-01  1.95507079e-01  3.31588686e-02
   2.82290727e-02  8.43185857e-02  1.03238650e-01  7.78726414e-02
   1.05778895e-01 -1.55619932e-02 -4.37531667e-03 -5.97767392e-03
   6.43729493e-02  6.38564974e-02  2.06404198e-02 -3.85080688e-02
  -1.31690830e-01 -1.36025799e-02  1.83746606e-01 -1.26743361e-01
  -4.58882004e-02 -1.92545131e-02 -2.80714687e-03  7.15247616e-02
  -2.97797490e-02 -4.49809097e-02  7.51794130e-03 -1.72221392e-01
   2.96322908e-03 -8.95201787e-02 -2.35792194e-02  6.49395166e-03
  -3.19351517e-02 -7.58717805e-02  4.18187864e-02 -4.25918736e-02
   6.34039417e-02  8.55450332e-03 -1.20448451e-02 -5.84563985e-02
   6.30769953e-02  9.57440138e-02  8.13919827e-02 -9.29367170e-02
  -3.20076346e-02 -3.34402323e-02 -2.09125187e-02  2.84159277e-02
   3.59362364e-03 -1.50196999e-03  3.63463303e-03 -7.21871033e-02
  -2.25884374e-03 -3.60116586e-02  5.65918423e-02 -8.45303014e-02
   2.08274610e-02  6.37022108e-02  5.99536374e-02  4.67703305e-02
  -6.84953555e-02  4.80157584e-02  8.32554884e-03 -5.74585609e-02
   1.07902221e-01 -6.00310378e-02  3.31939906e-02 -4.98330109e-02
  -3.89306881e-02 -4.06096224e-03  7.62938932e-02 -2.64227111e-02
   6.08746782e-02  1.20590791e-01 -5.59679121e-02 -3.67161743e-02
   3.30690891e-02  1.55764045e-02 -3.37903425e-02  4.15386409e-02
  -1.23235835e-02 -6.61924705e-02 -1.44664515e-02 -1.12466007e-01
   1.12786971e-01  6.52982444e-02  4.44902368e-02 -1.78948473e-02
   5.50118089e-02  1.17993932e-02  8.97511020e-02  1.79467835e-02
   1.67350229e-02  5.20274043e-02  1.37029022e-01 -8.38608518e-02
   1.00736730e-02  6.15034997e-02  3.12005612e-03  4.48361523e-02
   6.39201552e-02  2.71750633e-02  8.55556428e-02  5.92355691e-02
  -8.61278847e-02 -7.42345769e-03  5.92532307e-02  2.99325343e-02
  -5.76041043e-02  1.15817942e-01 -1.51961986e-02  2.06826329e-02
   2.85156239e-02 -3.59791555e-02 -5.38556278e-02  6.45183548e-02
  -7.51244742e-03 -1.04290560e-01  7.04642758e-02  5.52561283e-02
  -4.09360267e-02  1.33492239e-03 -1.81576069e-02 -4.72388379e-02
   9.50719137e-03  1.11744523e-01 -1.27276972e-01  8.71567801e-02
  -1.33290375e-02 -2.32427474e-02 -5.93363568e-02 -8.95408820e-03
  -4.31042276e-02 -1.90853830e-02 -9.52804275e-03 -7.32135475e-02
   4.72887829e-02 -2.57478692e-02 -1.09254733e-01  2.14632507e-02
  -8.18610787e-02 -5.14557250e-02  1.47899846e-03  1.79492608e-02
  -1.28187358e-01  1.14518493e-01  3.77219431e-02 -5.69962561e-02
  -2.43219081e-03 -9.23812538e-02 -4.65974659e-02 -7.84681216e-02
  -1.44218164e-03  4.21605892e-02 -3.57990153e-02 -2.91237310e-02
  -1.05844349e-01  1.37984529e-01 -1.53076006e-02  8.54956210e-02
   1.42563814e-02 -9.49055608e-03 -1.79619957e-02 -9.50210437e-04
   4.67861854e-02  4.00986746e-02 -1.43134326e-01 -1.00530893e-01]
 [-1.01367660e-01  9.15836245e-02  1.57492712e-01 -2.58954521e-02
   1.05034314e-01 -1.11902896e-02 -5.49682416e-02  1.31182134e-01
   7.73287043e-02  8.93442184e-02 -3.88506539e-02 -3.67627591e-02
   3.31234299e-02 -2.12218687e-02 -2.68576089e-02  3.63695398e-02
   9.69174877e-02  6.59042299e-02  6.29290491e-02  2.81200614e-02
   9.66095552e-02 -3.57966535e-02  5.02786487e-02  1.73372254e-02
   6.73646405e-02  2.42425613e-02  1.12818860e-01 -7.21278116e-02
   5.19779734e-02 -2.35962179e-02  9.61782187e-02  4.18473482e-02
  -2.77449563e-02 -6.87168315e-02  2.87308060e-02  7.66597316e-02
   9.09877568e-02  1.68231383e-01  7.43035674e-02  8.17906298e-03
   7.91092440e-02  1.96431324e-01  1.63650848e-02  2.52805315e-02
   1.35876328e-01 -4.50360531e-04 -3.83578532e-04  5.12164421e-02
   3.38696651e-02  9.19852108e-02  4.67285030e-02  2.57172380e-02
  -6.24290854e-02  9.62828994e-02 -1.85252409e-02 -9.86986160e-02
  -2.20141523e-02 -1.93486456e-02  7.47117624e-02 -7.57370749e-03
  -4.97054122e-02  5.99933835e-03  1.26907900e-01 -1.19917409e-03
   1.22158583e-02  5.21391369e-02  6.24018572e-02  5.40470332e-02
  -3.17991152e-02  1.36367055e-02 -4.16123122e-02 -4.37189918e-03
   6.50974438e-02  8.30523223e-02 -7.50329718e-02  5.56038283e-02
   4.29983139e-02  1.41082659e-01  6.32270128e-02 -9.44059566e-02
   2.79417424e-03  8.90026428e-03 -7.54091749e-03  8.97859782e-03
  -9.20607522e-02  3.24585997e-02 -6.73015714e-02 -9.18732882e-02
  -7.17230812e-02 -8.66809711e-02  8.52855202e-03  4.32826541e-02
  -2.42685974e-02  1.67822577e-02 -4.53892425e-02 -1.26782387e-01
   5.90111353e-02  8.16525742e-02  3.50504778e-02 -1.22091271e-01
  -2.70776059e-02  1.06571922e-02 -3.86108123e-02 -5.95901012e-02
  -6.16517961e-02 -1.14326887e-01  3.45561653e-02 -2.15259604e-02
   7.92280957e-02 -1.04606681e-01 -1.88037530e-02 -1.33723408e-01
   6.02290034e-02 -1.97677501e-02 -4.94742543e-02  1.16046080e-02
   9.91404988e-03  3.46488468e-02 -1.28874317e-01 -6.35818858e-03
   2.58183200e-02  7.72386864e-02  1.13488957e-01  2.23763324e-02
   5.48417717e-02 -6.61616176e-02 -7.57071078e-02  9.30497721e-02
   4.13712785e-02 -7.21953809e-03  1.59569383e-01  1.21458322e-01
  -6.21455871e-02  5.09034544e-02 -3.41757108e-03  1.01934023e-01
  -6.44104742e-03 -3.72146443e-02  8.45619068e-02 -4.23234999e-02
   5.59689254e-02  1.63399093e-02  2.08398588e-02 -1.37191089e-02
  -5.49737178e-02 -9.93408337e-02 -3.70431244e-02  1.62308753e-01
  -1.25468289e-02 -6.93933712e-03  1.88773617e-01 -3.93259823e-02
  -7.92094246e-02 -6.98030591e-02 -3.78186740e-02 -7.66936466e-02
   3.18734981e-02 -8.98368191e-04  3.89288738e-02  8.26604366e-02
  -8.67959559e-02  1.91421378e-02  5.15918508e-02 -1.47564104e-02
   3.36435586e-02  5.51244877e-02 -5.93466088e-02  3.71837579e-02
  -6.28263280e-02  8.20648596e-02 -7.95811042e-02  6.89341426e-02
  -3.14413235e-02 -1.30066834e-02  2.91893855e-02  6.31567016e-02
   4.77067418e-02  1.44454062e-01  3.93865295e-02  1.56077072e-01
  -3.96025740e-02 -5.81439883e-02  5.69156930e-02  6.66743368e-02
   3.92606817e-02 -9.71697718e-02 -1.00865796e-01 -7.37934783e-02
  -1.00490721e-02 -3.41308303e-02  2.22366340e-02  2.60176696e-02
   1.01449475e-01  3.02053988e-03 -1.43017005e-02  4.51509617e-02
   1.21287331e-01 -8.96035731e-02 -1.39592573e-01  5.86389452e-02
  -2.98876818e-02  4.94079664e-02  1.27847165e-01 -3.60796083e-04
  -6.76397933e-03 -6.69910237e-02 -8.26508626e-02 -5.40266298e-02
  -3.71309172e-04 -3.98923233e-02 -2.05219015e-02 -3.65374647e-02
   5.74664213e-03  1.45752028e-01 -1.45569906e-01  4.66421507e-02
   8.54309052e-02  3.86132747e-02 -2.94913314e-02 -4.24171127e-02
  -9.10663977e-02  4.58771586e-02 -6.87823966e-02  3.34294103e-02
   2.56251474e-03 -1.05745450e-01  7.16491938e-02  1.05679139e-01
  -1.27716511e-02  1.52155207e-02  9.59630590e-03 -7.70362467e-02
   1.11495309e-01  2.57800315e-02 -1.45480009e-02  2.59572044e-02
  -2.53238995e-02  3.55111435e-02  5.64842299e-02 -3.20099592e-02]
 [ 5.78081002e-03 -1.38887078e-01 -1.85008720e-01 -1.62411258e-01
  -1.70712009e-01 -2.25753158e-01 -8.32485259e-02 -8.52212161e-02
  -1.37460470e-01  6.23506028e-03 -1.24494471e-01 -1.07495837e-01
   5.56831025e-02 -1.48912027e-01 -1.51185542e-01 -1.16913915e-01
  -9.55130607e-02 -9.63460729e-02 -2.70755559e-01 -9.96468812e-02
  -1.13609739e-01 -6.44719303e-02 -2.29429215e-01 -2.44326741e-01
  -2.41446733e-01 -9.76982340e-02 -1.34893224e-01 -1.16757765e-01
  -4.97181825e-02 -9.37825441e-02 -3.35764736e-02  5.44410422e-02
  -1.62521422e-01 -4.58515808e-02 -2.65095234e-01 -1.52246095e-02
  -5.00387885e-02 -1.90877412e-02 -2.99386054e-01 -6.48641363e-02
  -2.83709690e-02 -1.12028927e-01 -1.05778173e-01 -9.89753287e-03
  -1.64130032e-01 -1.35319501e-01 -4.45009395e-02 -1.15584016e-01
  -1.07705019e-01 -2.42295668e-01 -2.81715356e-02 -5.71484193e-02
  -2.80789305e-02 -1.12210318e-01 -1.37477785e-01 -4.85677682e-02
  -4.25997972e-02 -2.18448550e-01 -1.33786917e-01 -9.01876986e-02
  -1.72678530e-01 -1.49987414e-01 -7.74942040e-02 -5.26535586e-02
  -8.47092122e-02 -3.52255329e-02 -1.66587666e-01 -1.44930735e-01
  -2.31908903e-01 -9.13924649e-02 -2.13944063e-01  2.19712630e-02
  -3.92020978e-02 -1.77043915e-01 -8.70158970e-02 -2.01798473e-02
  -1.05358049e-01 -1.28197894e-01 -4.63547148e-02  3.45264673e-02
   6.88672587e-02 -4.14602980e-02  7.32168630e-02 -1.05465248e-01
   9.90547612e-02 -1.38190528e-02 -4.28539701e-02 -2.21903156e-02
   1.37361130e-02  8.33851006e-03 -5.26699461e-02  3.23151536e-02
   3.87787186e-02  1.52524561e-02  2.09537465e-02  1.16950147e-01
  -1.05090765e-02  4.13842611e-02  2.01730236e-01  4.00429517e-02
  -1.00789557e-03 -1.14432923e-01 -4.66723256e-02  7.51310587e-03
   9.28981304e-02 -7.29931593e-02 -2.35450510e-02  8.22824016e-02
   2.47617438e-02  4.32952959e-03 -1.13304004e-01 -7.51399547e-02
   1.08676665e-01  5.46174794e-02 -7.32879490e-02 -2.24742554e-02
   1.40589233e-02  2.89014615e-02  9.73570123e-02  1.93396322e-02
  -9.11060721e-02 -8.03523734e-02 -4.76400889e-02  2.35672705e-04
   3.40975933e-02 -6.83125928e-02 -1.25995830e-01  9.01263505e-02
   8.72766897e-02  1.72837283e-02  3.78091298e-02 -2.91853249e-02
  -3.43556367e-02 -2.51281331e-03 -2.87610814e-02 -2.57410132e-03
   2.54507363e-02  3.01942099e-02  3.83491367e-02  5.31663746e-02
  -1.44268706e-01 -9.47988033e-03  1.20973857e-02  6.70726448e-02
  -2.76145954e-02  1.08913139e-01  5.63386194e-02 -4.51513417e-02
  -9.32341162e-03 -1.22610085e-01 -8.27554092e-02  3.57750803e-02
   3.89300026e-02  1.38267681e-01 -1.19438116e-02 -6.46733642e-02
  -1.18369646e-02 -2.95096729e-02 -1.73916388e-02 -1.00229280e-02
   3.37823220e-02 -3.62436543e-03 -6.97767437e-02  2.24026404e-02
   2.80753393e-02 -1.62302610e-02  8.57140943e-02  6.97657689e-02
   2.03067940e-02 -1.79186780e-02 -1.55674741e-02 -3.75011340e-02
   6.35116920e-02 -9.33967233e-02  2.20872485e-03 -4.75052707e-02
  -1.39641970e-01 -6.24351203e-02 -6.22604927e-03 -4.98829596e-02
   5.28101847e-02  7.09634721e-02 -8.85749981e-02  3.41038592e-02
  -8.87206271e-02 -7.10343495e-02  8.31438377e-02 -8.51407871e-02
  -1.23964421e-01 -2.10215449e-02 -9.62760393e-03  1.16857737e-02
  -3.30108628e-02  1.62778106e-02 -1.42347571e-02  2.50349175e-02
   1.21892117e-01 -2.66817352e-03  1.22954957e-02 -6.48965538e-02
   6.77979067e-02 -7.59216249e-02  3.43058743e-02  7.20715150e-02
   1.06294081e-01  5.88227287e-02 -7.09080473e-02 -9.80980024e-02
   8.63723643e-03 -1.02947041e-01  8.75358209e-02  4.46491223e-03
  -6.92839473e-02 -4.98135276e-02 -4.58334237e-02 -4.35968973e-02
   6.57198764e-03 -3.08522489e-02  6.53724149e-02  8.62821564e-03
  -7.28450492e-02 -3.80974859e-02  7.13587403e-02 -1.70477390e-01
  -2.79685725e-02 -1.00037098e-01  9.13090333e-02 -6.97199106e-02
   7.88522661e-02 -5.50048426e-02  4.19022664e-02  1.65760424e-03
  -1.60756290e-01 -8.17224570e-03 -2.25276034e-02 -3.79922614e-03
   4.15642671e-02 -3.83475870e-02 -9.06362683e-02 -5.19724153e-02]
 [-6.25900105e-02 -1.32670840e-02 -5.32578900e-02  1.69654116e-02
  -8.17163214e-02  2.91271340e-02  5.19213220e-03 -3.92610505e-02
   1.18717149e-01  4.85399552e-02 -1.00957286e-02 -1.19282762e-02
  -4.66982536e-02 -1.74614713e-02  8.10331106e-02 -3.24209966e-02
   4.17009741e-02 -1.27026513e-01 -1.77981034e-01 -2.02364661e-02
  -2.32773367e-02  2.95104720e-02  1.44782022e-01 -1.35507837e-01
  -1.54725432e-01  3.09516098e-02  2.12189201e-02 -4.90281917e-03
   3.18440758e-02  4.35005538e-02 -3.93165536e-02  4.30091806e-02
   2.41393056e-02  2.70265285e-02 -7.06164017e-02  4.37737145e-02
  -3.35206673e-03  6.12338297e-02 -1.29400149e-01  9.35670212e-02
  -8.58655572e-02  4.96988301e-04 -1.18377656e-01  1.57374721e-02
  -4.62308414e-02  4.51855771e-02 -5.69081716e-02 -5.89256808e-02
  -6.06584176e-03  8.02524015e-02 -8.18814188e-02  4.59237322e-02
  -2.40333397e-02 -8.07728246e-03 -1.63115263e-02  6.94510415e-02
  -5.42691574e-02 -5.48405864e-04 -3.03487554e-02  2.29992326e-02
  -3.44924368e-02  5.61414547e-02  6.34989068e-02 -8.06169212e-02
  -4.95637320e-02 -1.09728806e-01 -5.04110418e-02 -7.12449625e-02
   7.69735202e-02  2.25360841e-02  7.66111016e-02  1.07148990e-01
  -5.31358607e-02  1.89868882e-02  2.05133539e-02  1.05958074e-01
  -1.30344599e-01  3.56566124e-02 -2.71557039e-03 -1.73645385e-03
  -9.16141178e-03  6.14871010e-02  3.75679992e-02 -5.69584370e-02
  -3.51630971e-02 -3.45933326e-02  3.49613242e-02 -5.69969974e-02
   7.94286728e-02  2.46629398e-02  1.85665749e-02  1.83896031e-02
   7.02137873e-02  2.27788258e-02  3.16897035e-03 -3.20494100e-02
   5.56497052e-02  8.77225548e-02 -7.97011629e-02  8.93849656e-02
   2.44316459e-02  3.75257269e-03  1.29511893e-01 -1.00288592e-01
  -8.70805234e-02 -3.72795649e-02 -2.48064883e-02  4.12259847e-02
   3.96324694e-02  4.43609133e-02 -7.33166263e-02  1.29000368e-02
  -1.34170605e-02 -8.31734538e-02 -5.62381046e-03 -5.59848770e-02
  -1.39859691e-01 -8.69549662e-02 -8.11576173e-02 -1.32396482e-02
   3.75047065e-02 -6.62213638e-02 -7.75108337e-02  3.26317213e-02
  -1.00129530e-01  3.62910330e-03  5.48103340e-02 -1.41436523e-02
  -1.03291929e-01  1.57569394e-01 -4.90554273e-02  2.40135901e-02
  -7.10866600e-02 -2.85429265e-02  5.20355850e-02 -4.34574634e-02
   3.91469486e-02 -1.14868738e-01  1.09508596e-02 -2.53898595e-02
  -3.73860374e-02 -6.97665522e-03 -1.51271764e-02  8.37521031e-02
  -6.21326827e-02 -3.92185664e-03  4.42607775e-02  3.84346657e-02
   3.81104387e-02  8.00574496e-02  4.04720306e-02 -8.08244292e-03
   2.53344513e-03 -6.99774548e-02  1.59545410e-02 -1.01278657e-02
   7.64412209e-02 -8.93299207e-02  3.20493802e-02 -5.06704636e-02
   3.05662360e-02  1.27857197e-02 -1.09203514e-02 -5.90051487e-02
   3.74363810e-02 -6.72949627e-02  7.69710392e-02 -1.00473827e-02
   2.45961305e-02 -4.19489900e-03  8.69035348e-02  1.98277589e-02
  -2.55006459e-02  6.02541156e-02 -1.87324639e-02  1.02816680e-02
  -9.05823484e-02  3.42116728e-02  7.72127882e-02 -9.12951231e-02
  -7.40670040e-02  9.20471922e-02  9.27339047e-02  1.59561858e-01
   9.64769255e-03 -8.17219168e-02 -9.49751735e-02  4.31681238e-03
  -7.32621998e-02  2.26506423e-02 -5.32345958e-02  1.21170901e-01
   4.02492955e-02 -3.66926636e-03  1.46259144e-01  1.07617997e-01
   8.09064806e-02 -3.33331861e-02 -6.09488459e-03 -5.86092994e-02
   5.00114746e-02 -4.81850654e-02 -2.34124064e-02  8.49101916e-02
   2.10512653e-02 -5.46222134e-03  7.61273354e-02 -2.85628736e-02
  -7.94714876e-03 -4.71762381e-03 -2.68866420e-02  2.27350686e-02
   4.54539023e-02  9.95577350e-02  9.33894515e-02  1.48375556e-01
  -4.99776900e-02  7.99872279e-02 -1.77391320e-01  5.33049777e-02
  -1.59627255e-02  1.62892938e-01 -2.07043607e-02 -7.38648251e-02
   2.21950244e-02  1.31999189e-02  3.01945116e-02  8.36076960e-02
  -1.33890128e-02  3.89633328e-02  2.60844268e-02 -1.97615772e-02
   3.92252579e-02  1.39987729e-02  1.18524671e-01 -8.99794772e-02
  -4.06104550e-02  3.47988843e-03  1.13852657e-02  2.10367870e-02]
 [ 2.61482559e-02  1.20058872e-01  1.58420473e-01  6.24807701e-02
   5.33464290e-02  2.60215789e-01  6.15030117e-02  9.40046757e-02
   7.77227059e-02  2.17567086e-02  1.96024299e-01  1.12515315e-02
   8.20440277e-02  1.83688983e-01  3.71362939e-02  6.51043281e-02
   9.22710001e-02  3.51016484e-02  9.79007706e-02  2.83207089e-01
   1.45232424e-01 -3.98935899e-02  1.50153264e-01  3.51466835e-01
   2.55152524e-01  7.65632987e-02  1.55293882e-01 -3.51382196e-02
   1.30778596e-01  1.13365434e-01  2.51422286e-01  1.37976363e-01
   2.08452791e-02  6.39902800e-02  1.55512512e-01  1.72549099e-01
   7.93476254e-02  1.79797471e-01  3.04864570e-02  2.78619528e-01
  -3.30564119e-02  3.97312194e-02  1.18186519e-01  5.73120154e-02
   6.79356083e-02  2.06261817e-02  6.13342859e-02  1.97933659e-01
   1.03669830e-01  9.61935744e-02  2.25383550e-01  7.33596459e-02
   1.84169829e-01  2.21296400e-01  1.12085178e-01 -7.48339389e-03
  -6.00626739e-03  9.98261273e-02  1.31200492e-01  8.92032906e-02
   1.47418261e-01  1.09657869e-01  1.82663724e-01 -3.28320637e-02
   1.74833924e-01  4.62883674e-02  2.18410883e-02  1.39469221e-01
   1.32627919e-01  2.56798342e-02  7.93666616e-02  8.79475474e-03
   1.45462677e-01  2.56369591e-01  2.06878390e-02  3.23606580e-02
   7.04458309e-03  2.19435900e-01  2.67578781e-01  2.73215696e-02
  -1.19260550e-02  1.46991350e-02  4.22661677e-02  1.25428006e-01
   1.73746850e-02 -3.93426195e-02 -1.49030192e-02 -1.26316398e-01
  -1.89408381e-02 -5.80309853e-02  5.11220582e-02 -8.47035646e-02
   5.71145341e-02  2.31214613e-02 -4.35605310e-02 -3.03542111e-02
  -2.08719727e-02 -1.27728224e-01 -7.91779533e-02  7.00807804e-03
   1.21449508e-01 -2.85838041e-02 -1.81301534e-02  5.65594174e-02
  -1.45326436e-01  7.93758184e-02  1.80740133e-02 -5.11089386e-03
   1.97244715e-02 -9.15027335e-02  1.68435532e-03  3.93643342e-02
   2.24485248e-02  6.44096136e-02 -2.38835156e-01 -1.47337664e-03
   5.68086877e-02  8.01911764e-03 -7.57989958e-02  6.82246238e-02
   1.52051831e-02  1.66114606e-02  1.43795952e-01 -5.89005835e-02
  -5.91883361e-02  1.69550423e-02 -1.12854624e-02 -1.99636687e-02
  -2.58344691e-02  8.28008875e-02 -4.66999114e-02 -3.39992605e-02
   7.58363605e-02 -7.47223273e-02  3.11878063e-02 -9.79814306e-02
   1.57260299e-01  9.84908734e-03  8.90356973e-02 -4.36505750e-02
   1.92467943e-02  9.26633924e-02  3.06727868e-02  1.01736233e-01
   1.33314282e-02  5.09803230e-03  7.56762968e-03  4.26272415e-02
   1.79508533e-02  7.96119310e-03 -1.76992789e-02  9.51577127e-02
   6.58393800e-02 -3.37299006e-03 -8.90815705e-02 -1.75665878e-02
   3.08175497e-02  1.42543847e-02 -4.29153107e-02  9.42745805e-02
  -6.10009246e-02 -5.20188920e-02  1.49992295e-02 -6.51366413e-02
  -3.00797150e-02  6.63749203e-02 -3.43397819e-02 -4.62547578e-02
  -9.45455655e-02  6.13435954e-02  1.23452574e-01  4.20982856e-03
   9.14330482e-02 -2.77999807e-02 -2.05444451e-02 -6.90730438e-02
   1.07282043e-01  4.06620689e-02  3.66281867e-02  4.34144624e-02
   1.35501977e-02 -5.43726645e-02 -1.01310052e-02  3.00225895e-02
   6.57642484e-02 -2.41480786e-02  1.45511441e-02 -5.33315614e-02
   3.02358028e-02  4.92783636e-02  2.77440045e-02  5.32404855e-02
  -8.05056654e-03 -7.41341710e-02  9.07210167e-03 -9.88883991e-03
  -6.97244257e-02  7.02525452e-02  1.88663527e-01 -2.03147531e-02
  -1.28108868e-03  5.85445054e-02  1.26902416e-01 -3.02774832e-02
  -3.47139733e-03 -6.15095980e-02  1.66799664e-01  3.32970209e-02
   6.28860891e-02 -9.56753418e-02 -9.47965905e-02 -4.60692644e-02
   8.66355747e-03 -1.08979352e-01 -8.58191177e-02  8.55338760e-04
   4.55072857e-02 -5.07595716e-03 -3.36490683e-02 -2.68704966e-02
   2.95084063e-02 -3.18681560e-02 -8.19444880e-02  1.48123214e-02
   4.24950123e-02  1.52946906e-02  8.79553929e-02  1.07199214e-01
  -1.04297653e-01  6.86217770e-02  4.91657965e-02 -8.12501647e-03
  -7.01359883e-02  9.55607538e-05 -4.84703705e-02 -8.92057642e-02
  -5.76593652e-02  3.74423712e-02  3.83449681e-02 -1.70273054e-02]
 [ 5.57243228e-02  7.80462474e-02 -2.82052122e-02 -1.24194279e-01
  -2.08178669e-01 -1.41321033e-01 -8.22848678e-02 -1.24845609e-01
  -8.22064877e-02 -1.12605624e-01 -1.85942218e-01  1.40274512e-02
  -1.32954553e-01 -5.18824421e-02 -4.47687879e-02 -1.35326624e-01
  -1.75459325e-01 -9.33591500e-02 -1.02685653e-01 -9.46714729e-02
  -1.49990156e-01 -1.70955256e-01 -1.79975048e-01 -2.15615809e-01
  -1.56591818e-01  9.71964300e-02 -2.73918271e-01  7.47803152e-02
  -1.58736005e-01 -2.00047866e-01 -1.23273723e-01  1.26731470e-02
  -1.20306388e-01 -1.24517150e-01 -2.92971253e-01 -2.69797090e-02
  -5.24066612e-02 -2.10543409e-01 -1.08890191e-01 -5.61971357e-03
  -6.12585619e-02 -1.70723572e-01 -9.07165185e-02 -4.71564867e-02
  -2.39133582e-01 -5.04231378e-02 -2.09059641e-02 -1.90116048e-01
  -1.34599671e-01 -1.74918219e-01 -1.67572394e-01 -1.02503374e-01
  -8.81332681e-02 -1.23652630e-01 -1.14952520e-01  3.20539139e-02
  -6.54506162e-02 -2.00410053e-01 -2.36657530e-01 -1.98418617e-01
  -1.59358099e-01 -1.66864872e-01 -1.67044654e-01  3.94502692e-02
  -1.63941965e-01 -1.67180315e-01 -8.77345949e-02 -1.43649951e-01
  -9.32755992e-02 -4.81411889e-02 -1.64113417e-02 -1.21001676e-02
  -2.06150889e-01 -1.29726991e-01 -1.09873079e-01 -1.72252413e-02
  -3.32428818e-03 -1.70409992e-01 -2.25382805e-01 -1.12007946e-01
  -1.09047696e-01 -9.55818966e-03  1.26837473e-02 -2.47281753e-02
   1.51084632e-01  6.67015538e-02 -9.42440331e-02  1.20234378e-02
  -3.88917625e-02 -5.12478910e-02 -7.26356134e-02 -5.02126142e-02
   7.39368871e-02 -7.75377825e-02 -4.83732782e-02 -2.87014693e-02
  -6.72235638e-02 -1.23950504e-02 -2.75137443e-02 -2.00840905e-02
  -7.40682855e-02  1.38085738e-01 -3.40040252e-02  3.82929482e-02
   6.95279762e-02  1.16450749e-02 -3.42668630e-02  1.14557277e-02
  -6.73827007e-02 -1.18449353e-01  6.41525015e-02  6.08865097e-02
   8.56063515e-02  2.11783554e-02  8.45038891e-02 -9.40484274e-03
   2.81660128e-02 -2.53858715e-02  8.97436589e-02  7.19611160e-03
  -8.25092290e-03 -2.32881214e-02  3.49123180e-02 -1.44925602e-02
   6.30093068e-02  2.75521688e-02  1.00214384e-03  1.14388384e-01
  -7.26388581e-03  8.75043347e-02 -8.48417915e-03 -5.78662790e-02
   1.26298651e-01 -4.37165648e-02 -4.48469631e-02  6.23343922e-02
   1.57914143e-02  3.79076451e-02 -7.81152546e-02  3.47687751e-02
  -3.68496999e-02  6.47844747e-02 -4.05852981e-02 -5.50092198e-02
  -2.04066727e-02  1.38376057e-01 -1.53944492e-01 -3.94289978e-02
   3.75396907e-02  2.96351756e-03 -3.21128629e-02  1.04091987e-02
   4.04135650e-03 -2.63737701e-02  7.00870412e-04  6.33974895e-02
   1.89038999e-02 -5.90589717e-02 -1.19152732e-01  5.54280058e-02
   2.99976151e-02 -4.49128374e-02  1.96194258e-02 -1.00555785e-01
  -7.22508412e-03 -5.82867153e-02  7.45691499e-03 -7.29391128e-02
   8.25668797e-02  5.17165810e-02 -9.05924812e-02  9.58601683e-02
   1.02532424e-01 -2.75316536e-02 -1.24773540e-01  4.19352353e-02
  -1.12772599e-01  1.16094984e-01  2.54949480e-02 -9.69096795e-02
  -6.08908869e-02  2.25377958e-02 -3.18185589e-03 -2.71811895e-02
   4.89167795e-02  3.87695320e-02  4.96363603e-02 -1.07169561e-02
  -6.09262697e-02  3.74137051e-02 -2.47608051e-02 -2.72739548e-02
   2.12039072e-02 -6.21906482e-02 -1.12057226e-02  9.90415514e-02
  -2.55666971e-02  2.72866990e-02 -7.49194697e-02  5.80947995e-02
  -7.09695816e-02  2.10966468e-02  3.02138608e-02  3.96373831e-02
  -3.32487710e-02  4.69400957e-02 -6.98434934e-02 -1.60006732e-01
   9.61884931e-02 -8.93968120e-02  7.17450008e-02 -8.49074125e-02
   4.86323461e-02  1.83474794e-02 -2.47810408e-02  7.06734732e-02
  -4.06098142e-02 -4.88548465e-02 -2.92970077e-03 -4.31079865e-02
  -8.34373459e-02  2.37643570e-02 -2.21583135e-02 -8.65469947e-02
   8.08385089e-02  2.08705943e-02 -4.88525815e-02  4.08608504e-02
  -5.07581159e-02  3.98254544e-02 -2.85550840e-02  9.52649489e-02
   1.47001566e-02  8.39138404e-02  4.58430201e-02  1.21836998e-01
  -1.55117691e-01 -7.61325285e-02  1.10512346e-01 -4.17667888e-02]
 [ 6.07856289e-02 -6.99794739e-02  2.80735884e-02  1.82118267e-01
  -1.57848075e-02 -5.78168221e-02 -1.09418631e-01  1.18644368e-02
  -4.70574349e-02 -1.57246217e-02 -4.31177579e-02 -9.23163518e-02
  -6.46563619e-02  5.61197773e-02 -2.23544724e-02 -1.08248487e-01
  -6.93380907e-02  7.28454590e-02 -3.97659801e-02 -6.22260273e-02
  -1.02920614e-01 -2.32650246e-02 -1.98496021e-02 -2.63775438e-02
  -6.77685440e-02  5.43245710e-02 -3.39567550e-02 -5.68992719e-02
  -4.58439589e-02 -6.90804571e-02 -1.36723489e-01  1.92977060e-02
  -3.90790552e-02  3.07123037e-03 -8.06395337e-02 -3.78792509e-02
   6.82825521e-02  5.46290278e-02  6.92319348e-02 -1.51360575e-02
   3.97541467e-03 -5.89701198e-02  2.47171111e-02 -1.32343709e-01
   6.46466985e-02 -6.22233078e-02  1.70450881e-01 -3.14285755e-02
   6.68738130e-03 -1.64723516e-01 -4.13962007e-02 -1.01425491e-01
  -1.62185892e-01 -3.35697830e-02  1.93324909e-02  6.69011027e-02
  -6.34573698e-02 -6.93069547e-02 -1.31184056e-01 -9.72711295e-02
  -1.48728803e-01  4.97741960e-02 -1.73544083e-02  2.53882352e-02
  -5.64048626e-02 -1.53159238e-02  1.43951196e-02 -3.55788060e-02
  -9.22341123e-02 -1.12288877e-01  3.13708037e-02 -1.12465590e-01
  -1.48173636e-02 -4.58058529e-02  7.59521173e-03 -5.47836535e-03
  -4.87931073e-02 -1.12411138e-02 -1.14443786e-02 -5.44068702e-02
   1.02174029e-01  5.13232779e-03 -1.14327613e-02 -1.33958966e-01
   2.87874462e-03  3.48776169e-02 -3.15089524e-02  8.13214034e-02
  -6.79836422e-02 -1.04243765e-02 -2.00288221e-02  7.82695413e-02
   2.82625034e-02 -1.48996204e-01  3.03959530e-02 -4.14787903e-02
   8.64834525e-03  8.14201087e-02 -1.04132965e-01  1.76996574e-01
  -6.96080625e-02 -8.46915599e-03 -1.97593179e-02  1.43744916e-01
  -3.63487601e-02 -9.12470669e-02 -2.24904306e-02 -5.90224303e-02
  -1.19194768e-01  4.16215584e-02 -3.57618704e-02  8.79132282e-03
   1.33170132e-02 -8.19353089e-02 -7.13073742e-03 -2.84604146e-03
  -7.06570223e-02  6.33225031e-03 -2.70235818e-02  6.48037046e-02
  -4.15598117e-02  1.68171730e-02  7.29218349e-02  8.60556611e-04
  -2.45663114e-02  5.69082843e-03 -4.36419770e-02  4.08264762e-03
  -5.22773676e-02 -2.47460380e-02 -8.68902132e-02 -6.67655841e-02
   6.78462312e-02  1.90449022e-02  6.14635907e-02 -6.90212548e-02
   4.80741151e-02  7.30800182e-02  3.07669304e-02  5.23600951e-02
  -3.94324958e-02 -9.49904025e-02  6.71777781e-03  4.34272736e-02
   3.24308989e-03 -8.86815563e-02  9.23757721e-03  3.11665405e-02
   1.66924857e-02 -3.47091109e-02  1.21002952e-02 -2.75653936e-02
  -6.45201886e-03  7.57185221e-02 -7.62688965e-02 -6.10624328e-02
  -1.14362001e-01  2.62649879e-02  1.55798033e-01 -5.33766709e-02
  -4.62335274e-02 -1.97006520e-02 -2.87829936e-02 -7.42034428e-03
   4.51945104e-02  2.57134065e-02  4.02036775e-03 -4.95587010e-03
   1.98044553e-02  7.79470131e-02  4.36824784e-02 -1.32899042e-02
  -5.76554127e-02 -5.59078753e-02 -1.47402715e-02 -7.00994805e-02
  -1.24192558e-01 -4.28280570e-02 -6.95404038e-03 -5.85555620e-02
  -4.31416221e-02 -9.48091678e-04  8.19650814e-02  2.93392828e-03
   2.16692612e-02 -8.90693218e-02  5.36500365e-02  3.72092649e-02
  -8.65338445e-02 -1.25403002e-01  1.38378069e-02  8.17331392e-03
   9.10239443e-02 -1.36101335e-01  5.01127467e-02 -2.76416633e-02
  -6.83326051e-02 -9.92208533e-03  3.43989022e-02 -2.49374211e-02
   2.43933946e-02 -7.95843899e-02 -3.52136679e-02 -3.31612453e-02
   1.25854030e-01 -6.41548485e-02  3.12541574e-02  5.93860596e-02
   1.14744365e-01  1.43374177e-02 -6.80042896e-04 -1.69531647e-02
   4.41683317e-03 -1.64209753e-01 -3.45794410e-02 -5.71237504e-02
   9.50738043e-03  1.05111197e-01 -1.36437535e-01 -9.48529914e-02
  -1.59058109e-01 -5.29073924e-02  8.68098624e-03 -1.10210534e-02
   9.96534750e-02  3.89728323e-02 -8.22802186e-02 -1.28399044e-01
   8.61261971e-03  6.57532439e-02  6.77358359e-02  6.82475939e-02
   6.25868067e-02 -3.76323648e-02 -3.19705196e-02 -2.25997996e-02
   2.65840646e-02  3.57395597e-02 -6.66951314e-02 -2.43749786e-02]
 [ 3.25269215e-02  9.05911773e-02  1.25647515e-01  8.01880204e-04
   1.33134604e-01  2.27614626e-01  3.76771390e-02  6.14926144e-02
   6.90585896e-02  1.44152835e-01  1.66444793e-01  4.61651795e-02
  -1.01394020e-01  3.81060429e-02  1.31276026e-01  9.45732221e-02
   1.46749154e-01  1.08366184e-01  4.71018553e-02  1.77373841e-01
   2.50761002e-01  5.27035296e-02  1.82513714e-01  1.02049738e-01
   2.12149739e-01  1.74294524e-02  1.48816317e-01  1.06799468e-01
   9.80327055e-02  1.27066717e-01  1.41539887e-01  1.42364666e-01
   2.01611519e-01 -2.42270958e-02  9.71021429e-02  3.73477377e-02
   4.62348461e-02  4.53041233e-02  6.89308643e-02  8.23646113e-02
   6.93912990e-03 -2.35628504e-02  1.01486467e-01 -1.33625343e-02
   1.68426275e-01  9.91442502e-02  5.61982170e-02  1.18689351e-01
   9.55177918e-02  5.19266613e-02  8.88080522e-02  3.95864174e-02
  -1.96984876e-02  2.59494185e-01  1.34069428e-01 -6.92182630e-02
   1.18574582e-01  4.23442200e-03  2.07266659e-01  1.74668267e-01
   4.58335355e-02  1.67318642e-01  5.91698773e-02  2.79780962e-02
   6.64744824e-02  5.80613092e-02  8.31505284e-02  2.19031289e-01
   1.87709689e-01  1.43790707e-01 -4.41320008e-03 -7.16580600e-02
   9.36555564e-02  1.22732960e-01  1.38841718e-01  9.15376469e-02
   6.21831380e-02  1.65049046e-01  3.08006763e-01 -1.08788528e-01
   5.41745275e-02  1.67412609e-01  7.62431184e-03  4.22726199e-02
  -3.33955213e-02  9.28432718e-02 -3.79361100e-02 -7.73175061e-02
   5.94282895e-02 -8.99003521e-02  4.85210232e-02  2.48561706e-02
  -1.49271367e-02 -7.78192505e-02 -4.20568958e-02 -1.27420742e-02
   2.35146713e-02  5.08973412e-02 -4.45515364e-02  4.19685803e-02
  -5.10751456e-02 -1.23501606e-01 -1.74975231e-01  1.90729462e-02
  -6.64874390e-02 -2.16921195e-02 -2.63549555e-02 -1.26382969e-02
  -1.95423570e-02 -3.18465643e-02  3.02459653e-02  6.17661737e-02
  -1.13062151e-01 -3.00806388e-02 -4.05670255e-02  9.93936807e-02
   1.28336754e-02 -2.02072151e-02 -8.06375779e-03 -9.62757841e-02
  -9.05497372e-02 -9.80073772e-03  6.37734635e-03  2.59049032e-02
  -8.80476162e-02 -6.43975288e-02 -7.26884231e-02 -3.98499705e-02
   1.34000212e-01  1.28476517e-02  5.98442927e-03  6.69739991e-02
  -7.61495810e-03 -3.63978297e-02  9.07864571e-02 -5.48430793e-02
   3.18558253e-02  1.91957559e-02  2.98026912e-02  6.95346855e-04
  -2.93129887e-02  2.54243240e-02 -4.92466725e-02 -1.76689420e-02
   1.91057801e-01  1.13246776e-02 -2.66709067e-02 -1.27799083e-02
  -3.91209051e-02  4.46411408e-02  3.95847522e-02  3.28982137e-02
   2.19654348e-02 -8.23911950e-02  1.08033441e-01 -3.27704400e-02
   5.28866388e-02  4.97838296e-02  3.35683897e-02 -9.03678983e-02
   6.80681644e-03 -4.31412309e-02 -2.07949826e-03 -2.24623252e-02
   3.37276123e-02 -1.82147533e-01  3.52841318e-02  3.03106029e-02
  -7.09503666e-02  3.84888910e-02 -1.42751068e-01 -3.30152959e-02
  -3.38797159e-02  5.75213954e-02 -2.95999255e-02 -8.79915729e-02
   4.03521769e-02 -3.25771943e-02  7.47119412e-02  7.85290226e-02
   2.91572306e-02  1.42741412e-01  9.16347578e-02  4.19266447e-02
   2.46300939e-02 -9.88996774e-02  1.91349480e-02 -4.90072034e-02
   4.53555696e-02  8.42656270e-02  3.39325815e-02 -1.03087584e-02
  -7.42768422e-02  8.59681442e-02 -6.78181872e-02 -2.28186604e-02
  -4.58586290e-02 -3.92233282e-02 -7.83761591e-02  8.80608615e-03
   5.22019714e-02  8.11907202e-02  1.02712080e-01 -8.30050632e-02
  -7.95704871e-02  9.31931958e-02  4.52919584e-03  3.04802917e-02
  -3.45860305e-03  3.43442820e-02 -3.72371264e-02 -8.19621012e-02
   3.54450718e-02  4.81335819e-03  3.02663930e-02  1.13158852e-01
  -1.27494615e-02 -9.80109051e-02 -4.36640680e-02  8.70202780e-02
  -2.61226334e-02 -6.29416853e-02 -8.14729258e-02 -6.04720302e-02
   7.79762045e-02 -1.26890214e-02 -6.69563711e-02 -1.58327401e-01
  -4.26094308e-02 -5.82394451e-02  3.21786329e-02 -1.55261710e-01
  -4.53705639e-02 -7.29362713e-03 -5.47415391e-02  8.06838423e-02
  -1.85465049e-02 -8.10146555e-02  1.34360220e-03  1.04290359e-01]
 [ 5.08975685e-02 -2.57417917e-01 -8.40121284e-02  2.61377897e-02
  -1.35363668e-01 -1.59268230e-01 -1.19168013e-02 -1.19105607e-01
  -1.38229102e-01 -1.88767403e-01 -6.56024367e-02  7.02734962e-02
  -7.10982457e-02 -6.23911712e-03 -7.52867833e-02 -8.46868679e-02
  -1.46192044e-01 -1.23859286e-01 -1.79844469e-01 -1.61454856e-01
  -1.67472929e-01 -1.07684368e-02 -6.94204494e-02 -7.48680606e-02
  -2.61505514e-01 -6.41875267e-02 -8.16279501e-02  6.71025738e-02
  -1.05182812e-01 -1.15202308e-01 -2.42926534e-02 -1.59202330e-02
  -1.28348507e-02 -1.25500724e-01 -1.54410228e-01 -8.81853402e-02
  -3.48928869e-02 -2.52015650e-01 -4.70410921e-02 -9.51938331e-02
   9.73913912e-03 -7.73968548e-02 -1.15419038e-01 -4.24829759e-02
  -4.78102192e-02  2.16187704e-02 -1.04751639e-01 -1.02604434e-01
  -2.14623325e-02 -1.35558590e-01 -1.16172165e-01  5.62845580e-02
  -1.30489528e-01 -1.79399118e-01 -1.26204923e-01  4.19989116e-02
   4.07920033e-02 -1.18889742e-01 -1.49213582e-01 -5.82881458e-02
  -8.77938569e-02 -1.08267874e-01 -6.91005662e-02  4.45125625e-02
  -1.88974053e-01 -5.17313182e-02 -5.19057512e-02 -2.14622036e-01
  -1.94522023e-01 -1.61017850e-01 -1.33808121e-01 -5.44146970e-02
  -1.18147030e-01 -1.89679235e-01 -7.32981861e-02  2.22034566e-02
  -6.50405809e-02 -1.11409187e-01 -9.42301378e-02  8.07412863e-02
  -4.71103936e-02 -5.20214625e-02 -5.51175922e-02  1.62167884e-02
   2.26220284e-02  3.87734920e-02 -1.51893735e-01 -2.70887651e-02
  -1.42933413e-01  3.83592173e-02 -1.16441019e-01  5.59730381e-02
   6.06190898e-02  1.45872887e-02 -1.15747288e-01  2.72158477e-02
  -2.50617997e-03  1.64425969e-01  1.50590047e-01 -6.48439825e-02
   9.44740325e-02 -2.01057047e-02 -8.72714221e-02  1.86389592e-02
  -2.99777910e-02  6.39594272e-02  3.81727442e-02  7.52922744e-02
   5.61106279e-02 -7.77740255e-02  6.64163902e-02 -6.18823469e-02
  -7.61418492e-02 -1.03946850e-01 -3.93581912e-02 -2.19013747e-02
  -4.18737829e-02  5.57585023e-02  7.60565139e-03 -3.11564524e-02
  -6.06566034e-02  3.71165127e-02 -2.11909376e-02  7.87887648e-02
   8.03407189e-03  9.45493765e-03  7.25325048e-02 -8.23060349e-02
  -2.94030998e-02 -3.59639302e-02 -1.92296375e-02 -1.48074001e-01
  -1.97644569e-02 -2.83686947e-02  7.50411525e-02 -7.27193579e-02
  -7.07334373e-03  2.94755660e-02  7.67133981e-02  2.42400672e-02
  -7.55274855e-03  9.11374986e-02 -7.30692297e-02  9.85311437e-03
   7.03231548e-04  1.95978787e-02 -6.57804608e-02 -1.42965978e-02
  -6.16936362e-04 -9.45669860e-02 -5.29484935e-02 -2.80931480e-02
  -6.08645156e-02  8.87021795e-02 -7.82132149e-02  3.11506055e-02
   2.63751410e-02 -1.35873437e-01  2.29542539e-03  1.52521105e-02
  -7.15453699e-02  1.05617031e-01 -1.16768934e-01  1.12743601e-01
  -1.88371781e-02 -2.00445149e-02 -9.38937739e-02  4.92026545e-02
   3.33801024e-02 -2.30870679e-01  6.31130263e-02  2.33197123e-01
   1.16208240e-01 -7.13262409e-02 -3.22344266e-02 -9.03835073e-02
  -1.33513346e-01  1.52253630e-02  3.82929370e-02 -1.00237288e-01
   8.60783309e-02 -1.17970258e-02  6.35268837e-02  4.40579019e-02
   6.29715696e-02 -7.50834569e-02  3.71520817e-02 -8.91948491e-02
   2.22798586e-02  8.54321644e-02  2.94641424e-02  9.26314071e-02
  -1.65156238e-02 -3.49060372e-02 -5.62654659e-02 -1.51457163e-02
  -7.90774077e-02 -7.37286806e-02 -2.02945415e-02  1.02726243e-01
  -1.62660610e-02 -8.42619613e-02 -3.10861766e-02  6.08977675e-02
   4.00213152e-02  7.26998523e-02  1.86190885e-02  7.98800960e-02
  -1.24790166e-02 -2.91056130e-02  3.08390427e-02 -3.18870097e-02
  -6.78598955e-02  1.47772599e-02 -8.46380740e-03  5.14205061e-02
  -3.80124571e-03 -1.11624214e-03  7.30118575e-03 -9.37032998e-02
   3.32839936e-02 -1.66143347e-02 -4.93765846e-02  5.93537726e-02
  -4.21363600e-02  1.02700889e-01 -3.47916633e-02  9.95983928e-02
  -3.70243378e-02 -2.44671889e-02 -6.56064898e-02 -5.96737564e-02
   7.41519853e-02  3.90664786e-02 -2.90360879e-02  6.90421537e-02
   9.95063260e-02 -1.61711313e-02 -1.60049237e-02 -1.08042896e-01]
 [ 7.48678893e-02 -2.26996571e-01 -1.25974670e-01  2.23684851e-02
  -1.29272163e-01 -2.63579696e-01 -1.06143123e-02 -9.89688784e-02
  -4.14300524e-02 -1.14280514e-01 -1.70254573e-01 -3.06093544e-02
  -1.07961468e-01 -1.32271439e-01 -4.57280986e-02 -1.21448733e-01
  -1.51641920e-01 -2.06354052e-01 -6.42243996e-02 -1.26651332e-01
  -5.90032674e-02 -1.74528539e-01 -4.76947688e-02 -2.54788935e-01
  -1.02969229e-01 -1.32240742e-01 -1.67376801e-01 -2.98347641e-02
  -1.96309671e-01 -1.46244839e-01 -1.29326478e-01 -3.54178548e-02
  -1.48035303e-01 -1.39191735e-03 -9.73415077e-02 -1.00912862e-02
   2.53627766e-02 -1.80260018e-01 -2.69929945e-01 -8.25513750e-02
   7.33796954e-02 -1.12293422e-01 -8.63797292e-02  2.32140592e-04
  -6.15379885e-02 -1.27315432e-01 -4.66888957e-02 -2.10796297e-01
  -4.66725677e-02 -1.02708854e-01 -9.31173861e-02  9.57030430e-03
  -6.17713816e-02 -1.33110017e-01 -6.76781759e-02 -6.84434026e-02
   9.94146918e-04 -5.88930584e-02 -6.53420538e-02 -2.00145647e-01
  -1.63365752e-01 -1.59400217e-02  1.43012367e-02  3.15399691e-02
  -7.69267529e-02 -1.77733824e-01 -1.22379601e-01 -3.82245108e-02
  -1.73849404e-01 -7.10800365e-02 -5.38406484e-02 -1.63173720e-01
  -7.09103122e-02 -1.03479959e-01 -1.28132150e-01  1.35354586e-02
  -2.11447328e-02 -2.49075830e-01 -8.39888826e-02  8.90269503e-02
   2.84954980e-02 -9.17086750e-02  7.51583129e-02  2.61251405e-02
  -7.56748915e-02  4.95156161e-02  6.32564947e-02  2.62399614e-02
   2.01466586e-02 -6.26734123e-02 -3.27841304e-02  1.85978897e-02
   5.02646454e-02  4.42435741e-02  2.00927183e-02 -1.25697196e-01
   8.18557385e-03 -4.43841610e-03  4.73136753e-02  7.18898624e-02
   3.88713330e-02  5.62055632e-02 -4.86198254e-02  4.55321521e-02
  -9.97535586e-02  6.36638626e-02 -2.28508674e-02  5.82255330e-03
  -1.62391692e-01  6.15389720e-02 -3.67605239e-02 -1.46893905e-02
   6.17295280e-02 -3.87000628e-02 -5.78502603e-02 -8.10972787e-03
  -8.15809816e-02  1.26579389e-01 -4.93830210e-03 -6.14280887e-02
   7.52308294e-02 -9.13988985e-03 -3.18995602e-02 -9.53066871e-02
  -2.04423442e-02 -4.42553647e-02 -3.40091996e-02  7.37399654e-03
  -1.10123027e-02  2.92212348e-02  6.97026961e-03 -4.27182242e-02
   2.02325061e-02  1.32074088e-01 -5.87569252e-02 -2.36984044e-02
  -3.99335846e-02  1.38378277e-01  8.79086368e-03 -4.73443829e-02
   1.05293825e-01  5.57737425e-03  1.42325088e-02  8.80680454e-04
   5.74586876e-02  4.52120453e-02  3.44076268e-02  1.29562384e-02
   1.23887351e-02  1.39352651e-02  7.97879472e-02  3.15187499e-02
  -2.62581278e-02 -7.36060087e-03 -2.99212132e-02  1.07798073e-02
   1.22045316e-01 -2.75390199e-03 -1.89380065e-01 -6.55323118e-02
   8.61245915e-02  4.67211567e-02 -4.37142290e-02  4.73875143e-02
   9.32492390e-02 -1.70522138e-01  4.16864896e-06 -9.75731313e-02
  -1.13717556e-01 -4.35862923e-03  6.51520351e-03  7.39468634e-02
  -1.22512959e-01 -8.33802372e-02 -8.08110237e-02 -3.08685610e-03
   5.25534677e-04 -5.23858750e-03  1.15282799e-03 -6.36342838e-02
   2.32651066e-02 -1.14747502e-01  4.91121225e-02  6.27531111e-02
   3.09292320e-02  9.44073051e-02 -3.77439559e-02  2.17604954e-02
  -2.33223196e-02 -1.04043134e-01  8.90598372e-02  2.92023551e-02
   1.86565891e-02  1.13776520e-01 -2.70763207e-02 -7.08848834e-02
  -7.11518154e-02  4.62332293e-02  2.70759333e-02  1.50822466e-02
  -7.49152387e-03  1.26335382e-01 -5.22162393e-02 -4.44357237e-03
   9.35893133e-02 -1.76166724e-02 -1.13697559e-01 -1.59023087e-02
   5.01726493e-02  6.28999434e-03  6.25907704e-02 -2.85747610e-02
   2.73844581e-02 -1.61574781e-02  1.39378030e-02  5.49696907e-02
  -1.17250994e-01  2.00606659e-02  5.57570942e-02  8.49353522e-03
   4.26138900e-02 -8.81461725e-02  1.46302000e-01 -3.09660491e-02
  -4.06176075e-02 -3.62664722e-02 -2.75398418e-02  5.31655587e-02
   9.20648724e-02 -7.68842967e-03 -2.98487954e-02  1.07973821e-01
   6.28544390e-02 -5.05330749e-02  5.85593209e-02  2.48652939e-02
   9.31470022e-02  2.39455537e-03  6.51089987e-03 -6.48198649e-02]
 [ 6.73647213e-04  1.95791930e-01  1.74851686e-01 -2.15066206e-02
   4.43007760e-02  2.64899671e-01  1.72778755e-01  1.28156886e-01
   1.43832862e-01  5.31570911e-02  2.11337194e-01  7.08127990e-02
   7.00576305e-02  5.15143052e-02  1.20917089e-01  2.30902825e-02
   3.65390889e-02  1.26143828e-01  1.32697642e-01  2.04143375e-01
   8.26968253e-02  3.09464578e-02  1.65182844e-01  2.06009567e-01
   1.68888122e-01  1.26618236e-01 -8.42933208e-02 -2.41244230e-02
   1.57886162e-01  1.46444216e-01  1.08448602e-01  1.18704274e-01
   1.11347653e-01  8.31444636e-02  1.79104581e-01  6.89037666e-02
  -4.95635681e-02  9.88122746e-02  9.19675678e-02 -2.69782115e-02
   1.75016269e-01  1.21864788e-01  1.73524067e-01 -3.61216553e-02
   1.77508786e-01  2.74816658e-02  1.39237598e-01 -1.28917617e-03
   1.18542500e-01  2.05449015e-01 -4.26528975e-03  8.92832801e-02
   2.46134885e-02  1.19049691e-01  8.80601779e-02 -4.83064465e-02
   9.40550417e-02  1.41036332e-01  1.31941602e-01  1.29337842e-02
   1.67980582e-01  2.07252115e-01 -4.26792679e-03 -9.37974304e-02
   4.13377322e-02  1.98226586e-01  6.78013591e-03  2.43826117e-02
   1.38441712e-01  4.32772823e-02  1.54129639e-01 -7.92212188e-02
   1.18695460e-01  7.98093975e-02  1.70120284e-01  1.02749884e-01
   7.75162131e-02  8.26396644e-02  1.05994038e-01  6.18898645e-02
   1.06277661e-02  2.20016390e-02 -6.25799783e-03  7.73933604e-02
  -1.85440592e-02 -3.60178985e-02  2.21501607e-02 -3.45585868e-02
  -3.11544184e-02  1.44821480e-01  9.71191749e-02  6.81044608e-02
   4.43542609e-03 -2.23218538e-02  4.89237718e-02  1.01215743e-01
   1.17854476e-01 -3.85867581e-02  3.50756869e-02 -2.91126445e-02
  -1.19403310e-01 -6.65151747e-03 -1.06151387e-01  5.91318235e-02
  -4.77077439e-03 -2.80349441e-02  5.93764037e-02  4.10169512e-02
   8.82425234e-02 -4.50260453e-02  3.97719108e-02 -1.65471509e-02
  -8.46873447e-02 -3.38455178e-02 -3.37934271e-02  1.04723563e-02
  -2.22359342e-03  1.53164491e-01  4.51797694e-02  3.28034745e-03
  -4.91722152e-02  4.04327214e-02  7.10034044e-04  5.61292283e-03
  -8.96032751e-02 -2.21401043e-02 -4.46252115e-02  1.25122583e-02
  -1.06570348e-01  4.98131402e-02 -1.07447855e-01  6.07789978e-02
  -8.00090879e-02 -1.75381768e-02 -4.53489721e-02  1.02320286e-02
   5.22458144e-02  7.45913014e-02  1.77474059e-02 -3.09400894e-02
  -2.52890936e-03 -7.57303685e-02  3.25257401e-03  9.84518453e-02
   7.18501732e-02 -1.43181402e-02  7.35421181e-02 -2.88825366e-03
  -9.29963663e-02  6.71977103e-02  8.28554109e-03  2.73183454e-02
   5.86818270e-02 -3.50016505e-02 -1.63872585e-01 -6.04329035e-02
  -5.44009209e-02 -3.81419957e-02  5.12805618e-02 -5.67200780e-02
   4.70420299e-03  3.38054560e-02 -4.32351641e-02  1.34201095e-04
  -3.02363988e-02 -2.46393476e-02 -3.18772234e-02  2.90403068e-02
  -2.39154529e-02 -2.71940809e-02 -3.06982789e-02  4.29145172e-02
   5.23711853e-02 -1.49094947e-02  7.22674876e-02 -4.97899875e-02
  -1.85487769e-03  1.10244319e-01 -1.33677870e-01 -4.81058322e-02
  -1.73821021e-02  5.57929918e-04 -8.05484727e-02 -2.54179426e-02
  -1.55193880e-01 -1.95640791e-02  5.09342030e-02 -5.13362419e-03
  -1.09100178e-01  6.85302392e-02 -4.89635691e-02 -6.64578602e-02
   3.98288593e-02  4.00866903e-02  2.95666438e-02 -6.18133647e-03
   3.54951732e-02 -2.52989549e-02  1.13981292e-02  5.09671772e-05
   4.81826141e-02  1.60546482e-01  5.83388843e-02  3.31290923e-02
   2.28943247e-02 -2.12871488e-02 -3.49070393e-02 -2.62693018e-02
   9.95986909e-03 -6.74348846e-02 -5.55276079e-03  6.93599805e-02
  -1.08521562e-02  4.74370830e-02  4.66026226e-03  1.92291290e-02
  -9.10537243e-02 -4.79695909e-02 -7.12933019e-02 -4.17917930e-02
  -5.31101003e-02  2.33189110e-02 -5.78092784e-02 -1.32032381e-02
  -6.65155202e-02 -1.83901176e-01  5.76167554e-02  6.20467588e-02
   5.32734729e-02  9.89791527e-02 -9.02278647e-02 -1.03659229e-02
   4.13333252e-02 -3.96476500e-02  5.84653066e-03 -3.67501006e-02
  -1.78535566e-01  3.63900363e-02  4.15018760e-02 -3.57546061e-02]
 [ 7.70897046e-02 -3.87012884e-02  6.16975985e-02 -1.12921134e-01
  -8.38021588e-05 -8.64292458e-02  6.59451634e-02  2.01167408e-02
  -1.48627162e-02  1.06405064e-01 -2.94062402e-02 -8.52073357e-03
   9.39509720e-02 -1.51470385e-03  1.12775369e-02 -6.51786989e-03
  -7.32779950e-02 -4.15832363e-02 -1.70447249e-02 -1.05272248e-01
   5.25111519e-03  6.99290494e-03  4.10147607e-02 -1.34484991e-01
   5.48253320e-02  1.09624397e-02 -9.93409660e-03 -4.61052768e-02
  -3.42695639e-02 -8.19930509e-02 -1.77761372e-02  7.89751783e-02
  -3.42184817e-03  3.36573413e-03  6.31816760e-02  6.04984239e-02
   8.21897462e-02 -1.63302973e-01 -9.73068401e-02  4.89867367e-02
   2.54816879e-02 -6.54006079e-02  3.50267515e-02  4.30810871e-03
   1.84421279e-02  2.50816438e-02  4.46152650e-02 -1.05677828e-01
  -8.22725706e-03 -2.56697573e-02 -4.17904742e-02 -4.92520221e-02
  -5.43876365e-02  4.40387838e-02 -9.37030911e-02  1.80496126e-01
   6.67928457e-02  3.92616391e-02 -1.12763464e-01  5.74912950e-02
   8.95253494e-02  3.61568518e-02 -4.06258069e-02 -1.27840117e-01
   9.78973582e-02  3.14649194e-02  3.91768888e-02 -7.88170770e-02
   1.89810526e-03 -4.39330786e-02  8.82621184e-02  6.09406047e-02
  -3.11423782e-02  6.57347217e-02 -2.12482214e-01  3.72830890e-02
  -4.33269069e-02  4.44711149e-02  6.95345253e-02 -3.88587713e-02
   7.91765526e-02  2.75352597e-02 -8.44258592e-02  5.62405065e-02
  -2.32582744e-02 -3.99745107e-02 -9.36647356e-02  5.56310043e-02
  -6.26700819e-02 -1.48387179e-02 -1.54274464e-01  6.60883412e-02
  -1.80346966e-02 -2.38456950e-02 -9.57492217e-02  1.21192493e-01
   5.42559735e-02 -8.81734490e-02  5.23758605e-02 -2.12008599e-02
  -9.45594441e-03  2.39005964e-03 -4.92353812e-02  3.84070091e-02
   2.92976461e-02 -7.18418807e-02  3.30462344e-02  6.81156898e-03
   6.35089353e-02  1.28375376e-02 -5.70178665e-02 -1.55595578e-02
   1.56385496e-01  1.14155717e-01  5.64506799e-02  5.53120002e-02
  -6.40992541e-03  1.70650724e-02  2.85310112e-02  9.13276076e-02
  -1.97023135e-02  9.31271985e-02 -1.33049488e-01  1.15853630e-01
   8.14043742e-04  1.76465213e-02  2.02067748e-01 -3.10148299e-02
  -5.87561019e-02 -4.65411693e-02 -1.07086532e-01  7.33476803e-02
  -4.55190353e-02  8.93414989e-02  5.94493821e-02  1.82183553e-02
  -6.29288256e-02 -9.94062647e-02  1.21937037e-01  1.07447011e-02
   4.33278084e-02  5.37099550e-03 -6.30231341e-04  1.91738047e-02
  -4.25395928e-02  1.02179781e-01 -3.50777283e-02  1.16691925e-02
   7.69780949e-03 -8.61625839e-03  6.78234473e-02  6.24044873e-02
  -3.39013077e-02  2.86865160e-02  1.06524080e-01 -6.23195767e-02
   4.93143126e-02 -3.85610596e-03  1.50363864e-02 -5.43800592e-02
  -6.76838169e-03 -7.24125430e-02 -4.46034707e-02  7.96937104e-03
   3.54412617e-03  1.16589442e-01 -5.54973353e-03  6.48369417e-02
  -1.22859135e-01  2.97783799e-02  1.11187790e-02 -6.13586754e-02
   2.93129813e-02 -3.96259874e-02 -1.56456858e-01 -4.13401276e-02
   9.16242301e-02 -6.04031682e-02  4.06040950e-03 -4.44946662e-02
   1.69138499e-02 -1.56026930e-02 -2.28735488e-02  1.96387563e-02
  -3.91238034e-02  3.83769870e-02 -8.27607885e-02 -8.65537003e-02
  -2.03161240e-02 -7.02649960e-03 -7.60259852e-03 -4.20062877e-02
   2.63619050e-02 -4.41045761e-02 -3.50637026e-02  8.19357485e-02
  -6.80194572e-02 -2.31522638e-02  2.90884227e-02  8.99352655e-02
   3.46124172e-02 -2.50842348e-02 -1.28401220e-01 -8.65441710e-02
   2.89139571e-03 -8.78212526e-02 -9.34288055e-02  4.31784987e-02
  -1.71096751e-03 -2.39713006e-02 -5.25789708e-02  4.29427484e-03
   3.59139927e-02 -1.02955990e-01  8.56699497e-02  6.24737330e-03
  -3.88382822e-02 -4.35607857e-04  1.15948105e-02 -3.24764922e-02
  -5.19892313e-02 -9.38378926e-03 -8.25894624e-02 -6.97024837e-02
   9.85137671e-02 -3.90640497e-02 -8.72374550e-02  8.53757560e-03
   6.82658330e-02 -1.62909534e-02  3.46437432e-02  5.64029217e-02
  -3.33801508e-02  2.84849647e-02 -6.56882450e-02  4.91227694e-02
   4.47056144e-02 -2.12487094e-02  5.59411421e-02  5.87699600e-02]
 [-1.10707125e-02 -7.89145455e-02  1.44628007e-02  2.58592702e-02
   1.50431901e-01  1.36528581e-01 -9.00623724e-02  5.26428334e-02
  -1.24214338e-02  5.63983098e-02  9.93326157e-02 -1.50503278e-01
   1.82825339e-03  2.31039487e-02  2.08169401e-01 -4.30775173e-02
   6.09822646e-02  2.60217804e-02  3.99915725e-02  1.27647847e-01
  -2.21403912e-02  8.55932161e-02 -2.94618448e-03  5.76588102e-02
   2.04149991e-01  3.07052229e-02  1.67670146e-01 -4.44960184e-02
   5.04129305e-02  4.73778993e-02  1.36399090e-01  1.08822301e-01
   7.60908350e-02  7.80523643e-02  8.01237673e-02  7.39907026e-02
  -4.26380895e-02 -6.73790127e-02  2.60702856e-02  1.08629912e-01
   4.78558317e-02  1.60321489e-01  8.71869847e-02  1.64398208e-01
   9.54982042e-02  1.53499097e-02 -7.28722080e-04  8.27224478e-02
   1.48644552e-01  1.53517216e-01  1.02760628e-01 -1.96928643e-02
   1.14416800e-01  2.07218658e-02  1.81254998e-01 -6.43059164e-02
   7.38066016e-03  4.56540100e-02  1.75276279e-01  6.54084459e-02
   8.37251991e-02  4.14125361e-02  1.08881116e-01 -9.60869789e-02
   3.32827754e-02  8.27066675e-02 -5.18305376e-02  9.08869598e-03
   8.18186328e-02  8.62704068e-02  1.20991774e-01  1.49941416e-02
  -1.65487174e-02  1.91992760e-01  1.68954253e-01  1.82407182e-02
  -5.36595285e-02  6.65881261e-02  7.89809227e-02  6.11777045e-02
  -2.39550024e-02  6.20694198e-02  4.56043817e-02  2.76541729e-02
  -2.86043733e-02  1.02136731e-01 -9.64432210e-02  6.64654002e-02
  -9.39050131e-03  2.93575991e-02  1.39646471e-01 -5.20274304e-02
  -5.99738061e-02 -1.29270256e-02 -4.72916700e-02 -1.10540137e-01
   2.79801954e-02 -2.86144186e-02 -5.45867197e-02  3.11014950e-02
  -8.78765713e-03  9.68619063e-02  7.55980536e-02 -1.51006160e-02
  -1.94989797e-02 -1.15871266e-01 -4.34606858e-02  1.60684511e-02
  -2.79428111e-03 -1.67545974e-02  2.37387437e-02  4.96805757e-02
   1.24765290e-02 -2.39719227e-02 -6.81055561e-02 -1.38307493e-02
   8.73956531e-02 -1.18232347e-01  4.56116498e-02 -1.26322210e-02
   1.09263249e-01  7.81047717e-02  2.74451487e-02 -1.34971533e-02
   3.57441120e-02  4.52593697e-04  7.72477919e-03  2.47316957e-02
   7.63963833e-02  4.49675061e-02 -1.17045328e-01 -1.02618851e-01
  -5.45282662e-02  1.15339141e-02 -2.55785417e-02  7.12919831e-02
   6.53637992e-03 -2.11726166e-02  1.50623113e-01  1.06537975e-01
  -1.48221642e-01  1.69846639e-02 -5.83683997e-02 -8.78001936e-03
  -7.38520594e-03 -2.74629574e-02  3.87675017e-02  8.86449870e-03
  -3.66876274e-02  3.14218663e-02  1.33249715e-01 -2.82594133e-02
   2.27134302e-02 -3.03096287e-02 -5.61097451e-02  1.32912546e-01
  -4.20787110e-04  3.27588581e-02  1.22029297e-01 -2.13701651e-02
  -5.65869594e-03 -9.49976370e-02  3.55192311e-02  7.81334564e-02
  -6.95260689e-02  4.13905531e-02  4.33391109e-02 -1.03926331e-01
   5.91003001e-02  2.70597730e-02 -2.53544450e-02  2.60495245e-02
  -1.57102868e-02  2.60260026e-03 -1.79624241e-02 -1.79486070e-02
  -1.07176602e-02 -2.66683381e-02  4.08584140e-02  7.29871243e-02
  -9.20703784e-02 -3.14045399e-02 -1.23778455e-01 -7.88892508e-02
   2.68055275e-02  8.98527652e-02 -1.86972541e-03 -4.71822172e-02
  -1.03147835e-01 -7.62372240e-02 -5.39786331e-02 -9.77726355e-02
   3.76783311e-02 -7.08111003e-02  2.15229597e-02 -1.00930922e-01
  -1.08171981e-02  5.60508557e-02 -4.86193933e-02 -3.23034972e-02
   8.60199332e-02  1.30608231e-01  2.48106616e-03  3.00953966e-02
  -3.29738520e-02 -8.42203945e-02  1.84034519e-02 -1.55136092e-02
  -4.78768721e-02  6.19669165e-03 -9.43815708e-02 -5.57634607e-03
  -3.35781686e-02  5.20194359e-02 -6.83966205e-02  8.74690711e-02
   3.75587530e-02 -4.59590219e-02 -1.98475327e-02  6.54100534e-03
   2.71008834e-02 -8.81137848e-02 -1.46319106e-01 -7.67867491e-02
  -1.08389840e-01  6.59350455e-02 -4.97762226e-02  1.79214943e-02
   2.49655228e-02 -1.29978180e-01 -5.97094670e-02 -1.58865735e-01
   7.18475431e-02  7.67903477e-02 -8.53371024e-02  3.57233174e-02
   3.98708694e-02 -1.00430533e-01 -1.09715182e-02 -1.67101752e-02]
 [-8.32646042e-02 -3.44886295e-02 -7.62318820e-02  4.83548008e-02
  -2.23233132e-03 -9.61940214e-02  3.38556850e-03 -1.88767865e-01
  -1.09587222e-01 -2.17370149e-02  3.08224373e-02 -1.99577753e-02
  -1.66139193e-02 -6.82042763e-02 -2.37768441e-01 -1.49749815e-01
  -1.38672039e-01 -3.12587917e-02  1.72999129e-02 -7.95995593e-02
  -1.53871059e-01 -3.63580417e-04 -3.81879732e-02 -1.34545848e-01
  -1.71628758e-01 -8.66591856e-02 -6.24694824e-02 -7.92858228e-02
  -4.19843197e-02  4.43439521e-02  5.75956050e-03 -3.79526392e-02
   5.32119758e-02 -4.11615521e-02 -1.46221533e-01  1.24074882e-02
   2.23737136e-02 -5.21357059e-02 -1.75539013e-02 -1.45063028e-01
  -2.23664809e-02 -1.49569526e-01  6.01893142e-02 -7.94669092e-02
  -1.70595586e-01 -2.17005014e-02 -7.47018668e-04 -1.41563937e-01
  -3.53219993e-02 -1.72440130e-02 -6.57248031e-03  6.89755231e-02
  -4.85781133e-02 -5.32499924e-02 -1.13697477e-01  2.36317888e-02
   2.88588703e-02 -7.34285563e-02 -4.73937541e-02 -1.60263237e-02
  -7.98644423e-02 -9.15219933e-02  1.76419318e-02 -4.48802449e-02
   2.86082681e-02 -1.33414894e-01  4.61194851e-02 -7.12050945e-02
   1.14898458e-02 -5.84567636e-02  1.23786867e-01  2.59155035e-03
  -1.79586902e-01 -9.45680439e-02  8.49838555e-02 -1.05831526e-01
  -8.51643458e-02 -1.06367350e-01 -3.27210338e-03  6.74345121e-02
   5.32569550e-02  1.50589809e-01 -1.47516727e-01 -5.75980209e-02
   2.10531726e-02  2.33922880e-02 -5.68096526e-02 -1.11247644e-01
  -6.15590438e-02  7.96782877e-03 -3.64065729e-02  7.30351359e-02
   1.74707279e-01  1.26907781e-01  3.40802707e-02 -4.77346852e-02
   7.26462156e-02  4.74623367e-02  1.26786362e-02  1.17003515e-01
   6.70807213e-02  1.17185853e-01 -1.58421770e-02  6.64974228e-02
  -8.49838927e-02 -2.56315954e-02  5.68102077e-02 -5.79265468e-02
   2.83578504e-02  6.85860366e-02  5.21913469e-02 -1.19149238e-02
  -1.63200647e-02 -2.66350098e-02  1.01312231e-02  9.85337049e-03
   5.23545332e-02 -2.23169066e-02  9.93657485e-02  6.17961399e-03
  -2.96504460e-02  9.87546816e-02  7.23414496e-02 -9.93946716e-02
  -2.00106669e-02 -2.13783942e-02  1.54303303e-02  1.04588844e-01
   6.32782802e-02 -5.09235524e-02  7.33609200e-02  4.60713245e-02
   2.38752943e-02  8.95723328e-03  3.34933959e-02  6.71879277e-02
  -3.38066667e-02  1.02368779e-02 -3.57607234e-04  1.03934444e-01
   9.37111899e-02 -5.48040532e-02  1.51486853e-02 -3.74648049e-02
  -3.16778496e-02  7.25891367e-02  1.84087286e-04  2.44991928e-02
   4.93126363e-02 -7.93838203e-02 -2.97458377e-02 -3.64932492e-02
   9.92684737e-02  4.83652949e-02 -5.25981188e-02 -1.20754018e-01
   1.22768758e-02 -1.04967825e-01 -5.93622141e-02  2.64284238e-02
  -3.57802287e-02  1.01790220e-01  1.41498595e-01  2.29778048e-02
  -3.35282683e-02  2.78360490e-02  1.04476651e-02  3.30710481e-03
   5.73021621e-02  4.41866145e-02  9.19067636e-02 -8.08517933e-02
  -6.99166283e-02 -1.22589596e-01  5.18970704e-03  5.62624307e-03
   1.50069758e-01 -5.74235469e-02 -4.20469232e-02 -7.40905479e-03
  -4.25318629e-02 -1.44811459e-02  6.16418496e-02 -6.71799630e-02
  -2.11378606e-03  1.11204181e-02 -2.92216428e-02  4.75017130e-02
  -6.91442490e-02  1.74112692e-02 -3.38581167e-02  2.45170295e-02
  -5.73294424e-03 -6.27267584e-02 -2.28834767e-02 -4.04432788e-02
   4.89705093e-02 -8.02939609e-02 -2.32671946e-02  4.69555855e-02
  -9.81469825e-03  1.59595069e-02  9.96664390e-02  2.42329054e-02
  -2.45295037e-02  2.40422208e-02 -9.95332301e-02 -5.08713722e-02
   2.01050602e-02 -2.58019418e-02 -3.87052670e-02 -4.76876572e-02
  -6.87554404e-02  1.60569753e-02 -1.06491446e-02  4.76847999e-02
  -4.73428331e-02 -7.18100742e-02  6.03738204e-02  2.47823354e-03
  -3.57516669e-02  2.80435085e-02  1.73492415e-03 -7.36418888e-02
   9.01349355e-03  1.24667428e-01 -1.70088001e-02 -6.30335435e-02
   8.49553868e-02  6.95290491e-02 -7.23688304e-02 -1.06171379e-03
  -1.16469018e-01  6.25257120e-02  6.65898994e-02  5.72313629e-02
   4.70189042e-02  9.44807157e-02 -5.66336978e-03  2.46538296e-02]
 [ 3.20827700e-02  3.47568840e-02 -2.79554650e-02 -2.29157191e-02
  -2.42903195e-02 -3.31357926e-01 -8.98105428e-02 -2.08788916e-01
  -2.81588659e-02 -6.98952451e-02 -9.67533793e-03 -5.99501170e-02
  -6.66861832e-02 -8.08091760e-02 -6.22252077e-02 -6.72390163e-02
  -8.41177702e-02 -1.69506699e-01 -9.63853225e-02 -1.57432944e-01
  -1.75539583e-01  4.22838144e-02 -1.39792681e-01 -1.21213004e-01
  -2.45807827e-01 -2.08540544e-01 -8.19987357e-02  1.93633214e-02
  -1.96324110e-01 -1.00505024e-01 -1.10196605e-01 -2.62661744e-02
  -1.31616905e-01 -1.54665755e-02 -1.76271096e-01 -1.28391623e-01
  -1.55222893e-01 -1.07800446e-01 -1.34085864e-01 -2.73343213e-02
   2.39262767e-02 -7.94766992e-02 -1.64347142e-01 -9.25050899e-02
  -1.60920277e-01  3.79334167e-02  2.72563733e-02 -1.24623142e-01
  -1.42465025e-01 -1.15894035e-01 -1.53205186e-01 -3.24327536e-02
  -9.26488787e-02 -9.87560153e-02 -1.05012745e-01  7.13695958e-02
   1.50859598e-02 -1.72384411e-01 -7.44395480e-02 -1.18185051e-01
  -1.98307276e-01 -2.34534547e-01 -6.32877350e-02 -2.68931799e-02
   5.29107265e-03 -1.55575156e-01 -2.48419847e-02 -1.17186278e-01
  -1.12500459e-01 -7.63865933e-02  7.28094876e-02 -6.66215923e-03
  -4.36751507e-02 -8.14035758e-02 -1.23458385e-01 -6.37149289e-02
   9.11532938e-02 -2.17848778e-01 -7.01508671e-02  7.72208124e-02
  -4.80444962e-03 -1.76702514e-02  6.57449961e-02 -1.10477164e-01
  -4.30530719e-02 -5.92726283e-02  3.11210728e-03 -1.13168219e-02
   4.33206446e-02 -1.12370819e-01  7.37727713e-03  5.79165109e-02
  -1.18309865e-02  1.50572974e-02  8.79217610e-02  1.62112098e-02
   9.85338166e-02 -2.41030138e-02 -5.65019157e-03 -6.44120714e-03
  -2.79699732e-02  6.84111007e-03 -8.81164894e-02  7.80976983e-03
  -1.07100811e-02 -9.97601971e-02  6.76553920e-02  6.57529989e-03
  -2.82658543e-03 -1.45973668e-01  1.17707178e-01 -7.93295577e-02
  -8.48038942e-02  1.07990153e-01 -6.01508748e-03 -7.02458769e-02
   4.32866924e-02 -2.48775780e-02 -3.57303992e-02 -6.26785308e-02
   9.43402350e-02 -4.13912795e-02 -1.45369604e-01 -8.30328744e-03
  -4.86941822e-02 -7.10747987e-02 -5.66584170e-02 -9.24662650e-02
  -5.72360046e-02 -1.68138355e-01  5.52196987e-02 -5.14233820e-02
  -4.95648719e-02  4.63247970e-02 -5.24428710e-02 -5.02524190e-02
  -5.13298027e-02 -8.78677815e-02  9.58709698e-03  1.33607574e-02
  -1.39399245e-01  1.79320425e-02  3.14234346e-02  2.59376876e-02
  -1.14092670e-01  5.53230941e-02  2.21171305e-02  1.01606868e-01
   8.87837783e-02 -1.12440303e-01 -2.84065735e-02 -6.71184761e-03
  -1.29661068e-01  7.43862614e-02 -6.93979412e-02  8.57702568e-02
  -8.20072368e-03  1.19478665e-02 -4.89044525e-02 -7.95060918e-02
   9.48303491e-02  5.18722553e-03 -1.04612358e-01 -1.58347666e-01
   8.56217444e-02 -1.75010655e-02 -1.11164026e-01 -4.87103611e-02
   4.72166240e-02 -1.09515525e-01  5.09467311e-02 -4.84755961e-03
  -9.66434926e-03  1.01160705e-01 -3.16521078e-02  1.42413639e-02
   2.86010914e-02  2.13688333e-03 -3.49204405e-03 -6.28519878e-02
  -6.38018101e-02  2.35164501e-02 -4.76354413e-04  5.60757443e-02
  -2.21893489e-02  9.76458751e-03  5.92708886e-02  7.96145201e-02
  -4.04929854e-02  6.36961013e-02  7.05447141e-03 -5.11885341e-03
  -1.45999804e-01  4.81852971e-04  4.19972185e-03  7.31691048e-02
  -1.57324169e-02 -1.33079350e-01 -2.05437597e-02 -6.29850477e-02
  -5.81835806e-02  2.64563449e-02 -1.01676425e-02 -3.01501658e-02
   7.15260282e-02 -9.20531973e-02  3.91619764e-02  3.55360359e-02
  -7.82019198e-02 -3.72866429e-02  1.04271919e-01 -1.09400392e-01
  -1.23537458e-01 -1.26056463e-01 -5.83427511e-02 -5.67089543e-02
  -7.21369088e-02 -1.23224586e-01  1.34008806e-02 -6.07637390e-02
  -1.22957662e-01 -2.55052913e-02  2.07989197e-02 -1.34389019e-02
  -4.74887975e-02  4.11569551e-02 -1.05316304e-01  8.47567767e-02
  -4.57160100e-02  1.10888496e-01 -4.46243547e-02  7.18811825e-02
   5.26138581e-04  5.10808080e-02 -4.00523618e-02  2.39820015e-02
  -4.46867496e-02 -8.86776149e-02 -5.40168844e-02  3.80159877e-02]
 [-3.47612891e-03  1.74312154e-03 -3.25225815e-02 -2.43270607e-03
   7.84465745e-02  1.98084256e-03 -8.59030560e-02 -4.13034707e-02
  -1.56252772e-01  8.39759409e-02 -1.34431005e-01  1.23566926e-01
  -3.08380905e-03  4.94610742e-02 -1.67091504e-01 -2.95726508e-02
  -4.79617603e-02 -3.21165435e-02  2.13762978e-03 -3.31884883e-02
   3.31774168e-02  4.84398492e-02 -6.83852285e-02 -8.13634843e-02
  -9.78152305e-02 -7.46634454e-02 -3.08495704e-02  1.11167125e-01
  -1.16138771e-01  5.68768615e-03 -1.82379931e-02  4.42265384e-02
  -5.64731173e-02  2.44154334e-02 -1.00063019e-01 -2.46006802e-01
   8.12900718e-03 -6.35457337e-02 -1.09179482e-01 -4.27060910e-02
   8.80889073e-02 -2.13562787e-01 -6.38988242e-02  4.31389175e-02
  -5.16317450e-02 -4.61242199e-02 -6.77675456e-02 -3.25830877e-02
   6.00561723e-02 -3.81038412e-02  6.18451135e-03 -2.17377283e-02
  -2.06114911e-02  6.92832395e-02 -3.22270431e-02 -7.59655749e-03
   3.23770521e-03 -1.71963155e-01 -1.31226391e-01 -4.89095077e-02
  -7.18162283e-02 -8.92539173e-02 -1.06077813e-01  3.29738110e-02
  -2.07543634e-02 -4.30940725e-02 -1.62902743e-01 -1.52786430e-02
  -5.40280603e-02 -8.30266923e-02  3.29084210e-02 -7.54033178e-02
  -6.55512661e-02 -2.11296547e-02 -5.94572350e-02 -1.60437003e-02
   3.63296233e-02 -5.42548262e-02 -2.84272935e-02  2.88005285e-02
  -3.17521952e-03  1.68410148e-02 -6.58884421e-02 -1.25091657e-01
   1.07018024e-01  1.49855972e-03  3.49599728e-03  6.07673973e-02
   3.52549031e-02 -3.18703172e-03  2.50814483e-02 -5.33676296e-02
  -5.57270274e-02 -1.30424574e-01 -2.02172995e-02  1.26447842e-01
   6.99848905e-02  2.62336843e-02  8.70934054e-02 -3.67312022e-02
   1.45842703e-02  5.32096624e-02  6.74228966e-02 -1.80602130e-02
   1.22749591e-02  9.39719304e-02  3.38977668e-03 -1.19149145e-02
   8.66529718e-02  1.96374841e-02  6.19431660e-02  9.70748365e-02
  -8.20535980e-03 -1.71357598e-02  1.62745062e-02  5.92204444e-02
  -3.60128544e-02 -4.26141284e-02  5.36781996e-02  4.92755771e-02
  -8.29959288e-02  4.75695059e-02 -5.12585007e-02 -6.15760945e-02
   4.28628996e-02 -3.71441916e-02 -2.47614793e-02 -7.82008190e-03
  -1.33198112e-01  6.59529120e-02  3.96250421e-03 -9.05670449e-02
  -1.15672939e-01  6.28641695e-02 -1.43464044e-01 -2.91747469e-02
  -1.01339281e-01  1.44397058e-02 -6.18484356e-02 -7.79206008e-02
  -3.84281483e-03  5.67977391e-02  7.97641650e-02  9.10109580e-02
  -6.27029166e-02  4.92064543e-02 -1.39944330e-02  7.50964656e-02
  -5.39972670e-02 -2.33049411e-02  4.68633808e-02  3.11254431e-03
  -8.92169997e-02 -1.76013391e-02  7.67845288e-02 -5.15279323e-02
  -1.57177061e-01 -3.06559689e-02  3.35307382e-02 -1.14075094e-01
   5.35665229e-02  7.94315934e-02 -2.75050830e-02  1.09388150e-01
   9.51233730e-02 -5.00695743e-02 -8.35411400e-02 -3.50634791e-02
   1.31521478e-01  3.77020636e-03  9.15741920e-02  1.10499300e-01
  -4.42550890e-02 -2.74015646e-02 -1.22187480e-01  2.62316167e-02
  -5.30690625e-02  1.24599382e-01 -8.06870982e-02 -1.99342184e-02
   7.02860416e-04 -1.46293417e-01 -2.62306500e-02  5.72831593e-02
   5.37877195e-02 -4.62973304e-02 -4.99191098e-02 -1.51171172e-02
   4.05726768e-02 -5.98720908e-02  1.32166237e-01 -1.09491609e-01
   8.16698670e-02 -2.44822986e-02  1.64801329e-02  5.42256795e-02
   2.57363846e-03  9.89892893e-03  2.69404817e-02 -3.96824777e-02
  -1.68612879e-02 -5.65323904e-02  3.77971977e-02 -1.39688766e-02
   1.01089768e-01 -2.21545938e-02 -1.44832879e-01  2.15573050e-02
   3.24347615e-02 -9.28394869e-03 -7.76926205e-02  8.73412192e-03
  -1.04247741e-01  1.08887115e-03 -3.78170004e-03  3.58071104e-02
   5.10864742e-02  1.26028463e-01 -3.02487146e-02  4.05004174e-02
   5.37265465e-02  6.75850585e-02  4.24860902e-02 -4.62923609e-02
  -4.39585857e-02  9.02300626e-02  6.86139092e-02 -1.86229702e-02
  -1.29747801e-02  1.04824178e-01  2.38976460e-02  4.38851397e-03
  -8.84447321e-02  1.04974061e-01  1.46091403e-02 -5.16314209e-02
   5.33393435e-02 -8.81239846e-02 -7.99134932e-03  4.23002094e-02]
 [ 5.28266504e-02 -1.26991393e-02 -1.19900145e-01 -6.25710189e-02
  -6.81535900e-02 -2.21544042e-01 -5.49798496e-02 -8.76322761e-02
   9.62511450e-03 -4.46546599e-02 -1.42884135e-01 -1.15383662e-01
  -2.19698227e-03 -5.27697243e-02 -1.38175353e-01 -7.83237070e-02
  -1.33022055e-01 -8.73163790e-02 -2.17916161e-01 -3.14947993e-01
  -1.03299402e-01  7.53571419e-03 -1.73812196e-01 -1.64001182e-01
  -1.89559862e-01 -1.79079428e-01 -5.16483784e-02  1.59592494e-01
  -2.29720131e-01 -2.77365029e-01 -1.04001112e-01 -1.19259534e-02
  -1.14245154e-01 -9.03171673e-02 -1.80208296e-01 -4.10180986e-02
  -1.06137790e-01 -1.89122021e-01 -9.69555601e-02 -1.06524274e-01
   4.04473506e-02 -2.65581310e-01 -4.20981012e-02  6.51259301e-03
  -2.34186634e-01  3.45571414e-02  1.95277426e-02 -1.35998562e-01
  -5.70088960e-02 -2.02261999e-01 -1.25760794e-01 -7.45563060e-02
   3.40575054e-02 -1.77372605e-01 -3.25327925e-02  1.15319341e-01
  -1.25276286e-03 -5.74097671e-02 -1.13657944e-01 -1.19822532e-01
  -1.14889756e-01 -1.02281578e-01 -2.55379975e-02  6.37913570e-02
  -7.06063909e-03 -2.00355425e-01 -4.56872582e-02 -1.57401398e-01
  -1.72970653e-01 -2.06886485e-01 -1.56075522e-01 -3.38159539e-02
  -4.08531763e-02 -2.09908038e-01 -1.13829784e-01  2.44368445e-02
  -1.86912954e-01 -1.95624053e-01 -2.55498797e-01  8.49885941e-02
  -1.10417046e-01 -5.89617975e-02 -1.05927363e-01 -3.14800516e-02
  -7.89926499e-02 -5.10377176e-02 -8.71308986e-03 -6.97782859e-02
  -6.44115871e-03 -1.38178328e-02 -1.24104284e-02  4.99072820e-02
   9.51594114e-03  4.52546477e-02 -5.08547388e-02 -1.22572549e-01
   4.27592173e-03 -5.66323996e-02  9.24164280e-02  1.07647471e-01
  -3.43854539e-04  3.57989147e-02  1.44534912e-02  1.34267462e-02
   4.24373522e-02 -5.00992462e-02  1.84391644e-02 -2.25202972e-03
  -9.63091105e-02 -7.30038881e-02 -4.06420380e-02 -3.10975090e-02
  -2.83232294e-02 -3.26095633e-02 -2.34062178e-03 -6.51965514e-02
  -1.16109196e-02  9.54221934e-02 -2.49721054e-02 -7.02359974e-02
  -1.54759094e-01  2.58476790e-02  6.95165321e-02 -1.06075026e-01
  -1.16920490e-02  4.45499271e-02 -9.38473791e-02 -9.85027943e-03
   6.73681870e-03  4.30203602e-02 -9.36695486e-02 -3.91635448e-02
   2.66934875e-02  4.55913879e-02 -3.33380029e-02 -1.58191193e-02
   3.10842274e-03  3.44777741e-02 -4.64168489e-02 -1.20667435e-01
   8.18679482e-02  6.54976442e-02  1.71679482e-02  9.98241231e-02
  -6.70040697e-02 -5.89611232e-02 -1.24288678e-01 -4.69645076e-02
   5.91310766e-03 -9.65139419e-02 -1.73591852e-01  4.89540175e-02
  -8.60431716e-02  2.28137616e-02  7.58888479e-03 -2.99727283e-02
  -5.32818437e-02 -1.39585687e-02  6.38626143e-02 -9.02410001e-02
   7.16130286e-02  1.17589146e-01 -1.34973064e-01  9.74682495e-02
   2.40025055e-02  6.52002394e-02  1.46672279e-01 -6.90750107e-02
   1.19357128e-02  9.86331259e-04 -1.25652045e-01 -1.53514659e-02
  -7.84216821e-02 -5.57234064e-02  4.65595126e-02 -1.08280610e-02
  -3.32213789e-02 -7.15325326e-02 -7.18416348e-02 -5.64489104e-02
  -5.03148288e-02  1.32559063e-02 -4.64266613e-02 -2.11309139e-02
   4.67087589e-02 -4.11562547e-02 -1.94867685e-01  9.16145444e-02
   1.12903208e-01  1.08873963e-01 -6.05961382e-02 -1.03846803e-01
  -6.00915179e-02 -1.97936557e-02  7.37244189e-02 -4.12064344e-02
   2.18306407e-02  3.73601727e-02 -7.82417282e-02 -2.88496763e-02
   5.51195741e-02 -3.53748016e-02 -1.82045512e-02  6.54152781e-02
  -5.54490760e-02 -6.69117346e-02 -5.85719012e-03 -6.44460181e-03
   3.46009880e-02 -1.02687605e-01  3.39586511e-02 -4.13131760e-03
  -3.05862762e-02  1.43997818e-01 -1.75816547e-02 -5.85110858e-02
   6.16725883e-04  8.69006366e-02  6.09079637e-02  2.37763897e-02
  -8.34156275e-02  5.77221029e-02 -4.58246991e-02 -8.24986175e-02
   3.24761830e-02 -1.16985803e-02 -4.52323817e-02 -4.57608774e-02
   9.02011432e-03  3.70173417e-02 -5.68431616e-02 -1.59340817e-02
  -4.57261056e-02 -3.63332150e-03 -1.03140801e-01 -2.80326214e-02
  -1.17138680e-02 -4.70200479e-02  1.12702653e-01  1.45128379e-02]
 [-1.13919759e-02  1.02013268e-01  1.46547943e-01  7.44855776e-02
  -2.43524164e-02  9.45460796e-02 -1.56233413e-02 -2.26546526e-02
  -3.73839424e-03  4.36986722e-02  1.46847844e-01 -9.78696812e-03
   1.17905512e-01  7.71022290e-02  7.76075721e-02  8.87295902e-02
   5.10318987e-02  7.11255670e-02  1.43937483e-01  1.67885855e-01
   1.76942855e-01  4.46962602e-02  1.97142586e-01  1.00073688e-01
   1.56247079e-01  1.01352289e-01  2.08755985e-01  1.21106118e-01
   1.10176302e-01  1.39310390e-01  1.47187188e-01  1.87113598e-01
  -7.21711712e-03 -1.48698529e-02  1.39997885e-01  3.76476534e-02
   6.77735824e-03  2.04649553e-01  1.56430706e-01  5.62426774e-03
  -5.02065420e-02  1.11509584e-01 -8.91183969e-03  9.92169082e-02
   1.49121612e-01  2.88547855e-02  1.20335057e-01  1.56853631e-01
  -3.81449796e-02  6.34599403e-02  8.26175734e-02  1.50792487e-02
  -6.22645505e-02  1.44179553e-01  1.75784126e-01 -2.52269600e-02
   2.81367023e-02  1.83790937e-01  2.05587983e-01  1.96356028e-02
   1.65474638e-02  7.09468871e-02  4.03156281e-02 -6.35323822e-02
   1.01814024e-01  7.89539739e-02  5.81295639e-02  6.96335658e-02
   7.56441653e-02  2.89742909e-02  1.28639206e-01  2.23113745e-02
  -4.20236364e-02  9.75116491e-02  1.29820183e-01 -5.17619886e-02
   4.08097282e-02  2.80810911e-02  5.72374500e-02  8.19741860e-02
  -3.83896641e-02  1.21100113e-01  1.40381455e-01  1.47539437e-01
   1.56683866e-02 -2.33241767e-02  6.63456023e-02 -6.46492317e-02
  -6.55494183e-02  1.74761694e-02 -1.10731944e-01 -6.41694218e-02
  -5.07336259e-02  8.25736485e-03 -1.29214227e-02  1.99590266e-01
   7.79621303e-02 -3.37234177e-02  2.51895934e-02  8.97561312e-02
  -4.74781124e-03  5.78435995e-02 -5.71528524e-02 -7.77245685e-02
  -3.99499200e-02 -9.22729075e-02 -1.84743181e-02 -1.06673278e-01
   6.23765104e-02 -7.05429986e-02 -7.32433945e-02  6.19033910e-02
   7.10937241e-03  6.44732192e-02 -6.89676777e-02  8.84281322e-02
   5.76310121e-02  2.61066686e-02 -1.71836175e-03  3.00272442e-02
   3.83550785e-02  6.04809076e-02  3.38916481e-02  4.29408178e-02
  -7.61745870e-02 -5.11460751e-02  7.06028417e-02 -4.06574905e-02
   1.04257755e-01  3.43641452e-02 -1.74656823e-01  1.44615918e-01
   1.84040368e-02 -9.07936916e-02  7.04928786e-02  9.10541937e-02
  -1.45047093e-02 -2.77611874e-02 -8.87284707e-03 -1.04310617e-01
   5.35742901e-02 -6.31698668e-02 -2.40594037e-02 -4.43217903e-02
   4.83215265e-02 -4.14175466e-02  5.67285866e-02  6.51223511e-02
   1.29939457e-02 -1.58422720e-02 -2.02092901e-02 -2.25415011e-03
  -2.81229205e-02  1.35091707e-01  3.88730466e-02  7.35199600e-02
   3.13229486e-02 -1.02578579e-02 -5.51761724e-02  9.86856297e-02
  -1.03793154e-02  5.46160573e-03  7.34275654e-02  1.20772701e-02
   4.44172807e-02 -1.41185641e-01  8.90311375e-02 -5.15021048e-02
   3.98151241e-02 -5.52860983e-02 -5.95232919e-02  7.92666227e-02
  -3.96422073e-02  7.07301795e-02  2.85276659e-02  6.74875155e-02
  -5.66625558e-02 -6.29102960e-02  4.75823060e-02  1.40899912e-01
  -4.73175794e-02 -7.28658028e-03 -5.22821676e-03  1.23380274e-02
   1.82556286e-02  8.46344884e-03 -3.79574522e-02 -4.57965471e-02
  -3.97540517e-02 -9.85339358e-02  1.28650531e-01  3.90734524e-02
   2.87611671e-02 -1.47297338e-01  4.31735888e-02 -1.49317617e-02
   4.69722897e-02  8.80601332e-02 -6.99391514e-02  6.23942465e-02
  -3.90156098e-02  1.63790137e-02 -3.60351056e-02  3.75392511e-02
   5.87805770e-02  1.03788041e-01  3.38137299e-02  2.87511274e-02
  -1.01217963e-02  2.42475956e-03  2.33941581e-02  9.97729450e-02
   1.46468580e-02  3.13509703e-02 -4.90209796e-02 -3.29486765e-02
   9.68298540e-02  6.38501048e-02  7.96774477e-02  1.99961048e-02
   9.96036455e-02  6.77191466e-02 -5.40951788e-02 -3.33104035e-05
   5.12088351e-02  2.30775550e-02  9.46430638e-02 -1.03800744e-02
   8.85633007e-03 -6.16227388e-02 -7.68320635e-02  8.31869170e-02
   9.70226377e-02 -1.74084887e-01 -8.85794610e-02  1.50338644e-02
  -6.35389462e-02  1.38601317e-04 -1.69130825e-02  8.92077163e-02]
 [-6.37103319e-02  3.55012193e-02 -1.20542794e-01  6.06008992e-02
  -1.15168102e-01 -1.35775656e-01 -4.78809047e-03 -1.42853245e-01
  -6.35714307e-02 -8.13006014e-02  6.62080944e-03 -7.69541115e-02
   5.59342615e-02  7.94619918e-02 -4.84532863e-02  3.28429155e-02
  -2.44230721e-02 -3.20446752e-02  4.89747822e-02 -9.72544178e-02
  -2.90194415e-02 -5.94184585e-02 -1.27671927e-01 -1.16883591e-01
  -4.26083431e-02 -6.11801445e-02 -5.73672689e-02  8.49029794e-02
   1.06773761e-04  1.28949275e-02  4.32644188e-02  1.13943708e-03
  -7.59260133e-02  7.40917623e-02 -9.18641984e-02 -1.52400836e-01
  -8.92373845e-02 -1.18252434e-01  4.47827503e-02 -8.59409347e-02
   6.32147342e-02 -8.06240514e-02 -5.91797568e-02 -1.40787095e-01
   1.53661733e-02 -5.99220097e-02  2.76548434e-02 -5.88671602e-02
  -1.06257945e-01 -2.43231580e-02  1.47177493e-02 -3.56175117e-02
  -5.35280034e-02 -8.19906518e-02  1.08284382e-02  4.30512428e-02
   8.49157013e-03 -4.73584086e-02 -5.44425771e-02 -1.20802317e-02
   6.49531633e-02 -2.89985836e-02 -1.41366683e-02  3.15722339e-02
   3.83249149e-02 -1.48231387e-01 -1.95786566e-01 -7.20713586e-02
   7.31048465e-04 -2.71615479e-02 -2.48161349e-02  1.41708050e-02
   8.35261345e-02 -5.34646362e-02 -7.42113143e-02  6.44591823e-02
   2.35982221e-02 -4.56023104e-02  6.84313430e-03 -7.97390118e-02
  -6.20691618e-03 -2.36952212e-02  1.52673364e-01  1.92740001e-02
  -1.66853704e-02 -4.39474024e-02 -1.25392145e-02 -1.01980574e-01
   4.92710024e-02  1.03118420e-02 -2.00610366e-02  7.76633397e-02
  -9.55638662e-02 -3.91032100e-02 -1.05948471e-01 -8.33083764e-02
   5.37342876e-02 -2.65387958e-03  6.90634325e-02  1.13296241e-01
  -4.16558459e-02  4.24639136e-02  3.75686446e-04  2.20468845e-02
   3.55640985e-02 -4.42446023e-02 -5.54311611e-02 -8.64637829e-03
   2.22160928e-02  3.61552089e-02  4.66213794e-03 -1.45011544e-02
  -4.15794104e-02  4.55078632e-02  8.51911977e-02  1.05972067e-02
  -1.14231199e-01 -1.33035541e-01  1.03593327e-01  8.12355131e-02
   3.24565955e-02 -8.05338770e-02  1.19072460e-01  3.93108465e-02
  -4.09858264e-02 -7.43089058e-03  5.07347435e-02  3.82632390e-02
  -7.92238191e-02 -2.59332787e-02 -8.91919626e-05 -3.23340297e-02
   8.26950297e-02 -4.57192622e-02 -4.18552049e-02 -3.67602780e-02
   5.18443286e-02 -7.17751756e-02  1.26103600e-02  1.53062120e-01
  -1.03684384e-02  5.80105297e-02 -6.49220124e-02  5.21140583e-02
  -7.28917047e-02  3.61005552e-02 -5.37905768e-02  1.25507683e-01
  -9.43432003e-02 -1.35216951e-01  9.91803184e-02  1.06753208e-01
  -1.92985117e-01  1.87102538e-02  2.09293496e-02 -1.92075912e-02
  -5.77955358e-02 -5.06051295e-02 -6.88779354e-02 -5.90988621e-03
  -8.63823667e-02  1.76522601e-02 -9.79022905e-02 -8.75166431e-02
  -3.19691747e-02 -2.22129431e-02  1.96828116e-02  2.82091051e-02
  -5.99476546e-02  5.67180514e-02 -1.10243773e-02 -7.99923111e-03
  -9.14545506e-02 -1.19622938e-01  5.07210791e-02 -3.98762748e-02
  -1.00338370e-01 -3.41625176e-02 -2.49071363e-02 -2.33789701e-02
   9.74334702e-02  9.52101313e-03  5.87672740e-02 -4.76073101e-02
  -2.91450857e-03  3.63779441e-02  4.79805544e-02  4.55397591e-02
   7.59905353e-02  1.21365175e-01 -1.37809262e-01  9.53113586e-02
   2.02031448e-01  5.72222658e-02 -1.37579497e-02 -3.64262089e-02
   1.11997247e-01  1.03886522e-01 -1.21709835e-02  5.20054698e-02
  -1.12748751e-02  1.27997577e-01 -6.96437359e-02  3.30993347e-02
   2.81263273e-02  3.62393931e-02 -1.14239175e-02 -1.25697942e-03
  -2.32491065e-02  3.26807350e-02 -9.99304503e-02  9.60932821e-02
   5.24868146e-02  5.75566404e-02  4.41903695e-02  9.32329393e-04
   3.38284187e-02 -5.44726364e-02  7.41127208e-02 -1.95960291e-02
   4.19099873e-04 -8.03484842e-02  7.72124249e-03  4.54831012e-02
  -4.19820100e-02 -3.60146817e-03  8.12178536e-04  6.94310479e-03
  -5.62015623e-02  3.73173021e-02  8.98664668e-02 -3.51105630e-02
  -3.97591889e-02  2.07006913e-02  5.47331162e-02  2.62732003e-02
   4.45625372e-02  1.37440218e-02 -3.92055996e-02 -3.61374766e-02]
 [-2.15003639e-02 -5.81802204e-02 -6.01373985e-03 -7.51059130e-02
  -1.41947353e-02 -1.64750859e-01 -1.39213949e-01 -4.42153290e-02
  -7.76118711e-02 -9.08290148e-02 -1.07828990e-01  1.14154018e-01
  -8.81811753e-02 -6.10030070e-02 -7.92889223e-02 -9.30413455e-02
  -5.98045141e-02  1.49313491e-02  1.48862777e-02 -2.08463907e-01
  -1.25891775e-01  5.57339154e-02 -1.61774963e-01 -2.17977196e-01
  -3.85766402e-02 -8.38576332e-02 -1.22671232e-01  4.66060601e-02
  -1.19448788e-01 -2.09327370e-01 -7.85844699e-02  1.22082897e-01
  -7.96089992e-02  1.22105807e-01 -6.55254871e-02 -7.49424770e-02
  -1.16155535e-01 -1.47526175e-01 -4.09640595e-02  2.21516918e-02
  -9.61825028e-02 -4.62102778e-02 -5.35257086e-02 -1.08973786e-01
  -4.79278862e-02 -4.19425219e-02 -1.91904753e-01 -1.27025992e-01
  -1.29143551e-01 -7.08363950e-02 -9.26402137e-02  3.01704556e-02
   1.64737622e-03 -5.14254943e-02  3.98252606e-02  2.79019568e-02
  -4.16991338e-02 -7.75002837e-02  1.35206776e-02 -6.23428002e-02
  -1.00712769e-01 -8.11152235e-02 -6.34527728e-02 -1.77391358e-02
  -1.04209781e-01 -9.26033556e-02 -1.43780157e-01 -1.15454324e-01
  -1.25990957e-01  1.02731073e-02 -9.68520939e-02 -3.37363631e-02
  -1.25915825e-01 -1.18369326e-01 -8.40871334e-02  3.01106963e-02
   8.18028226e-02 -4.62549850e-02 -7.21389661e-03 -2.71098744e-02
  -2.92841308e-02 -6.66564181e-02 -7.00812489e-02 -1.40237883e-01
  -3.29202153e-02 -1.25047788e-01  1.82773210e-02 -6.02420373e-03
   1.08382227e-02  9.65715665e-03 -7.17973113e-02  9.09589510e-03
  -7.24499021e-03  3.84416990e-02  1.73909560e-01  1.02333128e-01
  -5.87246902e-02 -2.99543981e-03  3.26228589e-02  5.70781454e-02
   1.34283245e-01  4.27812412e-02 -1.05666973e-01  8.76971707e-02
   5.55405393e-03 -1.16051309e-01  4.65815328e-02 -2.66688541e-02
   4.87941615e-02 -5.71721233e-03  8.17639604e-02  6.25636652e-02
  -3.37435938e-02 -3.12684327e-02 -6.90686628e-02 -1.27098665e-01
  -4.66783121e-02 -6.83488920e-02 -1.91913191e-02  5.26349209e-02
   3.36845964e-03 -4.45869118e-02 -4.62213196e-02 -9.83764883e-03
  -5.78175997e-03  7.52204657e-02  2.54083276e-02 -3.96287069e-02
   5.52990139e-02  1.20580262e-02 -7.62758628e-02  1.28584038e-02
  -4.59896065e-02 -5.79245836e-02 -5.17949183e-03  1.41203701e-02
   7.23302066e-02 -1.71431433e-02  1.42836021e-02 -3.89638469e-02
   1.74517762e-02 -8.83073956e-02 -1.24181574e-02 -2.27584559e-02
  -4.71852869e-02 -6.77635968e-02 -6.55486286e-02  9.13471635e-03
   8.01992118e-02  3.58563964e-03 -4.29800116e-02  4.87134941e-02
  -1.35036558e-02 -1.26126339e-03 -1.23531707e-01 -9.19713527e-02
   1.02696745e-02 -1.49871245e-01  1.83362793e-02  5.87790795e-02
   1.02608614e-01 -6.50514886e-02 -3.73275355e-02  7.63049023e-03
  -1.30454466e-01 -4.36261334e-02  4.23643366e-02  4.38901410e-02
   5.22897616e-02  3.58969793e-02 -1.32719548e-02  1.03908479e-01
  -2.73832865e-02  7.07828701e-02 -2.53622085e-02 -4.79966067e-02
   3.42653953e-02  7.63039440e-02 -3.12812589e-02 -3.41929682e-02
   4.49617952e-02  5.22996411e-02  1.79098342e-02  8.50043632e-03
   2.80150007e-02  5.55658378e-02 -2.66994014e-02  7.17155710e-02
   4.11872864e-02 -1.55601695e-01 -3.02022863e-02  1.25384890e-03
   1.17620127e-02 -3.81273478e-02 -3.61714326e-02 -5.70741780e-02
  -2.69576088e-02 -1.51047399e-02  9.45633128e-02 -8.49782676e-03
   1.57666624e-01 -6.79019988e-02  1.03840970e-01 -6.45989627e-02
  -3.99372093e-02  3.94833535e-02 -1.45533094e-02 -6.79152757e-02
  -7.24593401e-02 -3.12673897e-02 -8.40676948e-02 -5.22761717e-02
   7.69929215e-02  9.68870744e-02 -5.24718203e-02 -9.28736776e-02
  -7.37710744e-02  2.44316384e-02  1.00628145e-01 -1.86232217e-02
   1.04696058e-01  7.59600545e-04  1.26066908e-01 -7.90948570e-02
   1.16401933e-01 -6.52825236e-02 -4.99175675e-02  1.84248928e-02
   7.79576749e-02  7.92086646e-02  1.39376104e-01 -8.66152197e-02
   5.84875867e-02  1.93873532e-02 -7.14689419e-02  4.54200096e-02
   2.94258054e-02  1.38362378e-01  3.79634239e-02 -2.14278046e-02]
 [ 4.33932543e-02 -8.68875682e-02 -1.81790009e-01 -5.92733696e-02
  -1.25371382e-01 -1.17760964e-01 -9.83514190e-02 -1.30316049e-01
  -1.30456507e-01 -2.15311050e-01 -1.81132302e-01 -6.40173210e-03
  -4.65675332e-02 -1.84180826e-01 -1.38159335e-01 -8.22253078e-02
  -1.71762496e-01 -1.87286809e-01 -4.79782000e-02 -2.78642267e-01
  -4.35565263e-02  5.04241847e-02 -2.57827580e-01 -1.21864051e-01
  -1.14329189e-01 -1.68970525e-01 -1.69466957e-01  3.87615673e-02
  -2.06415176e-01 -1.35720596e-01 -1.67455539e-01 -1.41025305e-01
   4.72346693e-03 -3.73224132e-02 -2.19150469e-01 -1.16111293e-01
  -6.00322187e-02 -1.45387501e-01 -1.66512728e-01 -5.55419512e-02
  -2.49667037e-02 -1.02317333e-01 -1.82617351e-01 -1.83873892e-01
  -1.30724534e-01 -7.64677003e-02 -1.43004745e-01 -2.33855337e-01
  -5.41229770e-02 -2.41494551e-01 -1.84760079e-01  3.25695388e-02
  -1.92523852e-01 -1.25732630e-01 -1.01193994e-01 -8.21102783e-03
   2.46902171e-04 -1.58249870e-01 -1.10908911e-01 -1.37645081e-01
  -8.57280791e-02 -2.83559203e-01 -9.18457210e-02 -6.56412467e-02
  -9.66164693e-02 -1.64024308e-01 -1.33583918e-01 -7.88238645e-02
  -4.30801399e-02 -1.14644475e-01 -8.62252936e-02 -8.37645121e-03
  -1.84929848e-01 -8.82263631e-02 -1.02352083e-01  8.79744142e-02
   6.55075982e-02 -9.56245810e-02 -8.50021020e-02  1.39927743e-02
   3.92473601e-02  1.29839974e-02 -6.38544336e-02  1.05297029e-01
  -3.74507979e-02 -1.05131656e-01 -6.72049224e-02  6.18182272e-02
  -8.26399922e-02 -1.55404592e-02  6.04585335e-02 -7.28398338e-02
   1.73585359e-02 -4.96188877e-03 -3.17930840e-02  2.36661304e-02
  -8.34420919e-02  9.13650915e-02  1.48623049e-01  4.63178940e-02
  -2.76995152e-02 -3.43552642e-02  3.23574655e-02  5.73850721e-02
  -4.74347593e-03  4.20296341e-02  4.28785197e-02  1.52628288e-01
  -1.03497244e-01  2.14086436e-02 -8.22313130e-02 -1.38671115e-01
   2.73765158e-02 -6.85223565e-02 -1.93145908e-02  3.94245936e-03
  -7.80494213e-02 -9.85712782e-02 -1.50416404e-01 -2.49112472e-02
  -2.36481484e-02  6.14923686e-02 -7.01480433e-02 -1.48023674e-02
  -1.31124571e-01 -2.07648072e-02  1.62393637e-02 -6.99762627e-02
   1.07641937e-02 -3.15874107e-02 -3.68777514e-02 -9.55545902e-02
   3.71678248e-02  2.76924595e-02 -7.18028545e-02  2.17872337e-02
  -5.48154786e-02  1.31411076e-01 -4.27162349e-02  8.68706256e-02
   1.94303077e-02  5.53827509e-02  9.88854617e-02 -3.50739546e-02
  -1.12989936e-02 -5.84090836e-02 -5.51531836e-02  6.27113134e-02
   3.55498269e-02 -1.08430281e-01 -2.19144356e-02  5.62805869e-02
  -1.98870059e-02  2.69249901e-02  1.09679466e-02 -9.65634361e-02
  -1.58755213e-01  7.82261044e-02 -4.69567440e-03  1.40313804e-02
   1.55467510e-01 -1.63917802e-03  2.87102349e-02  4.46531028e-02
  -1.08579196e-01 -6.07782695e-03  1.22264326e-01  8.93709436e-02
  -3.80405188e-02 -7.72624686e-02  2.15435121e-02  2.47814716e-03
  -7.04123527e-02 -2.69045122e-02  1.18455114e-02  5.59454672e-02
  -4.17675078e-02 -4.11499813e-02 -1.81088783e-02 -4.30408567e-02
   3.36797722e-02 -2.39356738e-02 -4.36222516e-02  2.33579446e-02
  -1.93891246e-04  1.01264872e-01  6.07543923e-02  6.09412082e-02
  -2.54063122e-02 -1.42544568e-01 -6.50012493e-02  2.83051264e-02
   1.40743768e-02 -8.88072401e-02  8.01972970e-02  7.01453770e-03
   3.00119072e-02 -5.47466502e-02  3.68913524e-02  7.91811422e-02
  -1.10451221e-01 -3.37174647e-02 -1.36330917e-01  1.69983581e-01
   6.07805606e-03 -5.70871420e-02  1.98393920e-03 -1.51183695e-01
  -8.95952806e-03 -8.10238644e-02  1.20870732e-01 -7.30712712e-02
   1.28235109e-02 -6.97318986e-02  5.41680083e-02 -3.31226625e-02
   1.06503040e-01 -3.46913971e-02 -9.94605720e-02 -5.33733591e-02
  -8.50903466e-02 -3.60388458e-02 -3.92831266e-02 -2.80128629e-03
   2.58225687e-02  2.41961814e-02  1.35984689e-01 -7.13038668e-02
   6.56474009e-03 -5.74014289e-03 -2.52754092e-02  3.87535198e-03
  -3.86330262e-02 -1.35507877e-03  1.32345781e-02  9.22846422e-03
  -9.70502421e-02 -4.58596498e-02  1.53582051e-01  2.71801874e-02]
 [ 4.11333852e-02  1.63364019e-02 -5.04910685e-02 -8.70556161e-02
  -3.42825018e-02 -6.66918606e-02 -4.22136672e-02 -7.66008124e-02
   1.19928204e-01 -4.82779108e-02  2.14173421e-02 -2.88198162e-02
   4.58016880e-02 -1.20982900e-01 -3.70818190e-02 -1.08556204e-01
  -9.03211161e-02 -1.70386270e-01 -9.63847861e-02  4.79816608e-02
   1.24248028e-01  3.13895419e-02 -6.68340102e-02 -3.43172885e-02
  -4.32009296e-03 -9.44176838e-02 -1.43412009e-01  8.97590071e-03
  -1.52285606e-01 -6.29362836e-02 -9.05928537e-02 -3.97300115e-03
   1.06828939e-02 -6.60080230e-04 -7.28395134e-02 -7.58368000e-02
   1.90787539e-02  1.66427150e-01 -1.23210791e-02 -7.71945342e-02
  -5.24985325e-03 -4.56621312e-03  4.35359403e-02  3.29931267e-02
  -3.72619405e-02 -3.75194512e-02 -6.83523268e-02 -8.64534676e-02
  -4.28077802e-02  4.21393514e-02 -4.97945771e-02  3.08147352e-03
  -6.06650189e-02  9.12796799e-03 -6.87573710e-03  6.44602031e-02
   3.84372249e-02 -1.22136429e-01  6.28622845e-02 -1.43319070e-01
  -5.59978113e-02  3.84506886e-03 -5.47691062e-02 -7.54318088e-02
  -2.59070173e-02  1.16745345e-02 -5.30989431e-02 -9.17065889e-02
  -6.70439145e-03  3.43971439e-02 -1.37748662e-02  9.59618855e-03
  -5.06144613e-02 -2.80237235e-02 -3.90068367e-02 -5.66799715e-02
  -5.19746318e-02 -8.71720761e-02 -1.01880543e-01  4.79169935e-03
   2.87738275e-02 -8.18224102e-02  5.89157501e-03 -1.18591405e-01
   1.58424377e-01  3.77961211e-02  5.31009547e-02 -1.48761332e-01
  -4.16264422e-02 -1.05574228e-01  4.50040586e-03  1.38095226e-02
  -3.75144370e-02  3.08039784e-02 -5.31727821e-02 -8.02673772e-03
  -1.72180235e-02 -3.29650305e-02 -7.70111457e-02 -4.18422818e-02
   1.83310509e-02 -1.14600535e-03  3.21006812e-02  3.64710093e-02
   1.17788598e-01 -7.45675573e-03 -4.57424037e-02 -8.86044651e-02
   1.24699334e-02  3.46787758e-02  2.62666885e-02 -9.01956260e-02
  -5.17539233e-02 -2.88667477e-04 -9.54982638e-02  6.11174665e-02
  -9.77680832e-02 -2.11319476e-02 -5.89994788e-02  1.91272553e-02
  -1.12671088e-02  4.05277242e-04 -2.88183168e-02 -2.78569516e-02
   2.18656436e-02 -1.17566131e-01  1.04391836e-01 -2.91015450e-02
  -9.23861489e-02  1.41310334e-01 -5.28057059e-03  3.88447642e-02
   2.97375052e-04 -8.70894734e-03  3.54066938e-02  4.80450988e-02
   3.29465084e-02 -1.22549482e-01 -2.79733520e-02  8.56395736e-02
  -8.58079568e-02  9.68028035e-04 -4.45304811e-02 -1.01693749e-01
  -3.93307172e-02 -1.37165979e-01 -8.68579820e-02 -9.89698097e-02
   5.48357656e-03  6.15177155e-02 -5.71021847e-02 -1.55470166e-02
   5.73785044e-02  2.36808378e-02  5.60874194e-02 -2.07312256e-01
  -4.05373722e-02 -1.08348519e-01  4.75294376e-03  2.76051182e-02
   3.31452601e-02 -1.10118585e-02 -5.72050400e-02  1.07533462e-01
  -3.83610539e-02 -2.32942626e-02  1.75414253e-02  8.86700228e-02
   2.05576345e-02 -7.18119591e-02 -3.11311730e-03  6.96305244e-04
  -5.20776398e-02 -8.97514522e-02  1.29186492e-02 -5.48877148e-03
  -3.76154378e-04 -8.67485106e-02 -4.95059788e-02 -1.12179548e-01
   7.79462457e-02 -7.18042850e-02  5.65554984e-02 -1.51717132e-02
   1.02735348e-01  1.13574952e-01  5.10291420e-02 -2.71399058e-02
   2.04851162e-02  1.24231920e-01  6.84428886e-02 -1.07707474e-02
   9.03345346e-02  8.62293020e-02 -5.88265546e-02 -1.25075802e-01
  -5.42251021e-02 -1.77247655e-02  3.35865989e-02 -7.26015940e-02
  -5.40100411e-02  1.23519609e-02 -1.37713030e-01 -1.98462367e-01
   3.17393686e-03 -2.87441425e-02 -1.11341281e-02  3.51693518e-02
   4.95151617e-02 -9.48044360e-02 -2.43676044e-02 -1.18753210e-01
  -7.98002407e-02 -1.79494843e-02 -7.65075237e-02 -2.13398468e-02
   9.24909487e-02  1.73550602e-02  1.60350855e-02 -7.64379352e-02
  -3.82200442e-02  4.22132351e-02  5.12341410e-03  2.41799504e-02
  -6.11020215e-02  6.20188937e-02 -5.53535894e-02  4.01723752e-04
  -7.18323886e-02 -5.93839623e-02 -1.07389288e-02 -6.50840637e-04
   2.82906387e-02 -4.40826006e-02  3.12758721e-02  2.37589516e-02
  -4.62141726e-03 -1.01455398e-01 -4.37322259e-03 -1.09563917e-02]
 [-1.69711951e-02 -5.81189469e-02 -1.04317658e-01  1.31120712e-01
  -2.48624161e-01 -2.87129730e-01 -1.16020165e-01 -1.22482873e-01
  -1.53989866e-01 -7.65817761e-02 -1.85002163e-01 -9.14799422e-02
  -1.43366829e-01 -9.00406316e-02 -1.27412707e-01 -9.56312381e-03
  -1.09746166e-01 -1.13138974e-01 -1.90790460e-01 -2.78593093e-01
  -7.09111765e-02  6.91188946e-02 -2.09869534e-01 -1.76104397e-01
  -1.47289053e-01 -1.09453693e-01 -1.82930544e-01 -1.44471779e-01
  -1.47595048e-01 -1.24454640e-01 -1.92954227e-01  3.92448716e-02
  -1.89396009e-01 -5.06713577e-02 -1.67258546e-01 -1.81258693e-01
   1.19260244e-01 -2.33794764e-01 -1.27157509e-01 -1.75222918e-01
   3.04252282e-03 -2.38527268e-01 -1.91929251e-01 -1.48429841e-01
  -1.81848496e-01 -9.29877684e-02 -6.82458207e-02 -2.28795364e-01
  -9.65283513e-02 -8.57776776e-02 -9.26485285e-02 -5.24288304e-02
  -1.27083957e-01 -2.01710969e-01 -1.03891432e-01 -5.29530048e-02
  -4.06588688e-02 -2.14157224e-01 -2.02723712e-01 -2.74170265e-02
  -1.39642298e-01 -1.83134317e-01 -1.34106487e-01 -8.49086568e-02
  -1.97664097e-01 -2.13294879e-01 -1.93618938e-01 -2.01377302e-01
  -1.87108010e-01 -2.88054943e-01 -7.34441280e-02  1.17228916e-02
  -1.33487195e-01 -2.01063052e-01 -1.18629508e-01  1.64694395e-02
  -3.35403457e-02 -1.19089812e-01 -2.93858379e-01 -1.64916068e-01
  -1.04643844e-01  2.74397023e-02  2.08313437e-03  7.00458651e-04
  -9.69015658e-02 -8.78947154e-02  3.47963162e-02  4.22845520e-02
  -2.08683703e-02  3.58503424e-02  2.51492132e-02  9.87973362e-02
   1.45405456e-01  4.80739884e-02  1.11629097e-02  2.03759149e-02
   6.57040998e-03 -6.88769370e-02  1.04119860e-01  5.64904511e-02
  -1.42916620e-01 -7.83313140e-02  2.24862192e-02  2.39311047e-02
   8.95629078e-02  1.01199180e-01  3.46597657e-02  3.61749679e-02
  -6.58649057e-02 -7.54932016e-02  4.40542214e-03  5.93731962e-02
   9.28100478e-03 -6.65059220e-03  6.94755139e-03  5.82709946e-02
   4.69847992e-02 -2.40463670e-02  8.15508589e-02  1.75701547e-02
   2.49155648e-02 -1.18974276e-01 -2.28291433e-02 -9.80305523e-02
  -2.40822416e-02  5.00129834e-02  1.43901492e-03  3.15147191e-02
   4.16837484e-02  2.50831302e-02  3.73933502e-02  2.00307053e-02
  -1.15102410e-01  6.80884272e-02 -2.70315763e-02 -1.38000464e-02
   1.27347177e-02 -8.03010131e-04  4.44447845e-02 -2.16391347e-02
  -8.83588474e-03  2.83058584e-02  7.37507269e-02 -1.35471031e-01
  -7.61428028e-02 -1.64274126e-02 -9.70654413e-02 -2.74773152e-03
   1.05586000e-01  6.80685090e-03 -2.41584908e-02 -3.61192003e-02
   7.04000965e-02  5.92223778e-02 -5.43942824e-02 -1.12384684e-01
   1.02902859e-01  5.37098804e-03  1.81050245e-02 -5.28617539e-02
  -5.89820929e-03  3.90091911e-02  3.08213086e-04  5.09054735e-02
  -6.04432561e-02 -9.17994827e-02 -2.17031222e-02 -4.05228995e-02
   1.83842450e-01 -5.28883375e-02  2.57967319e-02 -2.23362446e-02
   1.14934538e-02 -6.13381788e-02 -1.86812636e-02  6.96860403e-02
   1.25936136e-01 -6.45070001e-02 -5.53270727e-02 -1.26440413e-02
  -1.72691718e-02  4.77151535e-02 -3.79039235e-02  1.46921307e-01
   3.05852387e-02  1.59229208e-02 -4.72550653e-02  6.55929297e-02
   3.02645620e-02  7.02452958e-02 -8.59824568e-02  5.03653623e-02
  -3.62380892e-02 -2.98958388e-03 -1.59732699e-02 -9.65434313e-02
  -1.29594803e-01  1.69470143e-02  9.86169502e-02 -2.57935487e-02
  -1.61449872e-02  3.42949592e-02  3.20769511e-02  1.62705444e-02
   6.81678876e-02 -4.43003401e-02 -2.06778161e-02  8.33729468e-03
   1.26590198e-02 -3.03049050e-02  1.17617317e-01 -6.46394864e-02
   1.77963786e-02  5.39190427e-04  2.99369637e-02  2.79524494e-02
   1.18491985e-01  1.02002941e-01  5.36179245e-02 -6.01441674e-02
   1.25227287e-01 -1.24881983e-01 -9.89641175e-02 -1.96820330e-02
  -2.52377260e-02 -1.13978557e-01  3.29329370e-04  5.48780849e-03
  -3.40530798e-02 -6.43771067e-02 -3.16770449e-02  2.85813008e-02
   5.08523211e-02  8.06118399e-02 -1.28027219e-02  1.44145964e-02
  -6.27037212e-02 -9.51287150e-02 -1.72080457e-01  3.54073104e-03]
 [-8.36284906e-02  1.35564312e-01  1.11164883e-01  1.20080642e-01
   1.12946361e-01  1.27822876e-01  1.20636940e-01  4.77517061e-02
  -7.07540661e-02  1.12282656e-01  6.14665598e-02  3.96409705e-02
   7.20613673e-02 -4.93704714e-03  9.09805894e-02  4.93856184e-02
   7.51101375e-02  2.01088473e-01 -5.50091546e-03  1.23804770e-01
   1.03003405e-01  6.17338605e-02  5.83114810e-02  1.49326533e-01
   1.82711586e-01  1.05926648e-01  3.73316742e-02  6.92179650e-02
   4.83783521e-03  4.03493121e-02  3.29603143e-02 -1.09139178e-02
   4.96457666e-02  2.10157167e-02  1.26964942e-01  9.55616832e-02
  -3.15023698e-02  2.22677723e-01  1.34653315e-01  1.44614309e-01
   5.27303554e-02 -6.19259942e-03  7.15878978e-02  2.35295430e-01
   1.51407525e-01  1.16228797e-01  7.75672570e-02  5.80633618e-02
   2.83428039e-02  8.68919641e-02  6.44493550e-02  3.08259055e-02
  -5.43262623e-02  5.39517887e-02  3.70924696e-02 -2.59722248e-02
  -1.97292469e-03  1.12302355e-01  1.15872942e-01  1.31755143e-01
   1.33044496e-01  1.09311849e-01  1.68390065e-01 -5.49041964e-02
  -2.38757282e-02  4.01199609e-02  1.06412604e-01  1.59445390e-01
   1.27415881e-01  5.49220182e-02  3.40001397e-02  3.18573299e-03
   1.45135641e-01  1.17679045e-01  1.21711999e-01  2.38000527e-01
   6.08515851e-02  1.46599039e-01  8.02535042e-02  1.21605210e-01
   5.16092367e-02 -1.00887544e-01  7.21348226e-02 -6.88446984e-02
  -9.21742842e-02 -2.33222712e-02  9.89765972e-02 -1.37788251e-01
   6.65176511e-02 -4.11301851e-02  1.19747236e-01 -9.57826674e-02
   1.35753691e-01  1.11326426e-02 -7.01229647e-03 -3.63677107e-02
  -5.11158956e-03 -5.12888171e-02 -8.40580650e-03 -2.01729890e-02
   8.14186316e-03  1.19349849e-03 -1.10847305e-03 -8.53914488e-03
  -1.05195917e-01  3.21594588e-02  1.31880328e-01 -1.20196566e-01
  -2.08441145e-03  2.89421044e-02  6.71911612e-02 -4.05598357e-02
   4.89315353e-02  1.03289180e-01 -1.26200631e-01  3.22538312e-03
   5.05345836e-02 -6.26211911e-02  1.02621345e-02  1.16153248e-03
  -1.94561798e-02  3.82165127e-02  5.18222107e-03  6.91738501e-02
   8.11092630e-02  4.40033227e-02  5.03488220e-02  7.79777467e-02
   4.82432060e-02  2.41301805e-02 -1.01693928e-01  7.25896209e-02
  -8.94905254e-02 -1.30069986e-01  2.11575218e-02 -9.92028713e-02
   9.30986740e-03  8.23564604e-02  5.29730357e-02  7.25371065e-03
  -2.70721670e-02  6.28233999e-02 -2.34105475e-02 -5.56202345e-02
   2.48666089e-02  5.76593727e-02 -7.87999257e-02  5.29008694e-02
  -5.24172001e-02  8.54763910e-02  8.30878317e-02  3.08883972e-02
  -5.72112063e-03  3.87159698e-02  2.83032134e-02  4.39173989e-02
  -6.31103851e-03 -8.05463642e-03 -2.41921991e-02  1.24695133e-02
  -1.07214681e-03 -3.41349537e-03 -1.67096909e-02 -1.05531640e-01
  -1.27605230e-01  4.13874164e-02 -1.22584455e-01 -2.27727368e-02
   6.48307335e-03 -1.02266252e-01 -3.19032408e-02 -4.69384529e-02
   8.62101391e-02 -1.40768796e-01  7.76616065e-03  3.60823795e-02
  -4.30777520e-02  4.52167355e-02  2.19323616e-02  9.11176354e-02
  -3.87924463e-02 -1.66988924e-01 -2.69112680e-02 -1.43410778e-02
   3.23631149e-03 -4.44283299e-02  8.29731449e-02  2.13331846e-03
   2.76503507e-02  9.64997336e-03 -3.56882773e-02  6.47211894e-02
  -4.97721806e-02 -3.50668728e-02 -5.85603788e-02  6.92292750e-02
   2.17552073e-02 -4.67920024e-03 -4.49631549e-02 -1.13403931e-01
  -1.17119285e-03 -2.87056305e-02 -1.79700136e-01 -4.18347977e-02
   1.09789766e-01  3.08952071e-02 -1.11302771e-01 -4.20740210e-02
  -2.93902531e-02  5.11142984e-03  4.82796133e-02  5.72609752e-02
   1.14483014e-02  4.34497632e-02  7.92487562e-02  4.39108498e-02
  -3.77932750e-02  3.02010886e-02 -3.76154855e-02  5.96913062e-02
   1.76464841e-02 -3.21877785e-02  5.70825376e-02 -9.46198851e-02
   3.71177830e-02  6.51659891e-02 -7.26529509e-02 -1.15095139e-01
  -3.78578855e-03 -6.95331842e-02 -9.00559127e-03 -4.70459089e-02
   5.09466603e-02 -5.19286655e-02  1.67361517e-02  1.77619569e-02
  -6.17447030e-03  9.64408740e-02 -6.85916329e-03  4.79722694e-02]
 [ 8.26608762e-02 -1.34022161e-01 -6.03992455e-02  5.07146399e-03
  -1.63007244e-01 -1.03694394e-01 -1.43365678e-03 -1.62003562e-01
  -4.97606806e-02 -1.85526744e-01 -1.51802093e-01 -3.63071300e-02
   2.90756170e-02 -1.21678472e-01 -8.42514858e-02 -5.57638891e-02
  -1.34920120e-01 -2.39874590e-02 -3.19374911e-03 -1.80576444e-01
  -1.43575326e-01  5.65334707e-02 -1.36037871e-01 -1.73948884e-01
  -1.86467946e-01 -4.54620980e-02 -1.90623537e-01  6.18002489e-02
  -1.91953868e-01 -1.43151313e-01 -2.29126334e-01 -7.82795995e-02
  -1.59219295e-01 -2.78894715e-02 -1.11391827e-01 -4.60181683e-02
  -4.08206880e-02 -1.12429410e-01 -1.35305628e-01 -1.58519208e-01
  -1.74498223e-02 -1.02449462e-01 -1.12896465e-01 -6.66115656e-02
  -2.35083729e-01 -5.07169068e-02  2.97841674e-04 -1.11739352e-01
  -1.67952299e-01 -7.53643587e-02 -1.21107846e-02 -3.99088897e-02
  -3.89747247e-02 -5.35344705e-04 -1.10858172e-01  4.67827953e-02
  -1.70184374e-01 -9.55041870e-02 -8.34702030e-02 -6.82031810e-02
  -1.09513044e-01 -2.43190229e-01 -8.83811563e-02 -3.14470865e-02
  -1.41912609e-01 -1.13971315e-01 -1.04940914e-01 -1.57161534e-01
  -2.28271306e-01 -8.44517723e-02 -1.08928114e-01 -5.33084497e-02
  -4.90029939e-02 -9.04532298e-02 -1.82394356e-01 -8.13028426e-04
   3.04122977e-02 -2.09163055e-01 -1.54585585e-01 -6.15106151e-03
  -2.62470227e-02  5.81519194e-02 -1.06157623e-01  2.97586955e-02
  -2.06294507e-02 -5.23554981e-02 -2.98826471e-02 -1.54120058e-01
   2.73757726e-02  9.51520875e-02  1.50108412e-02  4.48001549e-02
   1.57232553e-01  3.58045995e-02  5.50368913e-02 -5.34493811e-02
   1.23544428e-02  8.17023069e-02  2.89814118e-02 -6.83524162e-02
   1.50512401e-02 -3.71459089e-02  7.89985880e-02  1.24108724e-01
  -5.09606004e-02 -2.78996527e-02  5.32034114e-02 -9.79599729e-03
   9.66657773e-02  1.80921474e-04  5.59478104e-02 -9.86444503e-02
